tree
version=v4
num_class=1
num_tree_per_iteration=1
label_index=0
max_feature_idx=401
objective=lambdarank
feature_names=Column_0 Column_1 Column_2 Column_3 Column_4 Column_5 Column_6 Column_7 Column_8 Column_9 Column_10 Column_11 Column_12 Column_13 Column_14 Column_15 Column_16 Column_17 Column_18 Column_19 Column_20 Column_21 Column_22 Column_23 Column_24 Column_25 Column_26 Column_27 Column_28 Column_29 Column_30 Column_31 Column_32 Column_33 Column_34 Column_35 Column_36 Column_37 Column_38 Column_39 Column_40 Column_41 Column_42 Column_43 Column_44 Column_45 Column_46 Column_47 Column_48 Column_49 Column_50 Column_51 Column_52 Column_53 Column_54 Column_55 Column_56 Column_57 Column_58 Column_59 Column_60 Column_61 Column_62 Column_63 Column_64 Column_65 Column_66 Column_67 Column_68 Column_69 Column_70 Column_71 Column_72 Column_73 Column_74 Column_75 Column_76 Column_77 Column_78 Column_79 Column_80 Column_81 Column_82 Column_83 Column_84 Column_85 Column_86 Column_87 Column_88 Column_89 Column_90 Column_91 Column_92 Column_93 Column_94 Column_95 Column_96 Column_97 Column_98 Column_99 Column_100 Column_101 Column_102 Column_103 Column_104 Column_105 Column_106 Column_107 Column_108 Column_109 Column_110 Column_111 Column_112 Column_113 Column_114 Column_115 Column_116 Column_117 Column_118 Column_119 Column_120 Column_121 Column_122 Column_123 Column_124 Column_125 Column_126 Column_127 Column_128 Column_129 Column_130 Column_131 Column_132 Column_133 Column_134 Column_135 Column_136 Column_137 Column_138 Column_139 Column_140 Column_141 Column_142 Column_143 Column_144 Column_145 Column_146 Column_147 Column_148 Column_149 Column_150 Column_151 Column_152 Column_153 Column_154 Column_155 Column_156 Column_157 Column_158 Column_159 Column_160 Column_161 Column_162 Column_163 Column_164 Column_165 Column_166 Column_167 Column_168 Column_169 Column_170 Column_171 Column_172 Column_173 Column_174 Column_175 Column_176 Column_177 Column_178 Column_179 Column_180 Column_181 Column_182 Column_183 Column_184 Column_185 Column_186 Column_187 Column_188 Column_189 Column_190 Column_191 Column_192 Column_193 Column_194 Column_195 Column_196 Column_197 Column_198 Column_199 Column_200 Column_201 Column_202 Column_203 Column_204 Column_205 Column_206 Column_207 Column_208 Column_209 Column_210 Column_211 Column_212 Column_213 Column_214 Column_215 Column_216 Column_217 Column_218 Column_219 Column_220 Column_221 Column_222 Column_223 Column_224 Column_225 Column_226 Column_227 Column_228 Column_229 Column_230 Column_231 Column_232 Column_233 Column_234 Column_235 Column_236 Column_237 Column_238 Column_239 Column_240 Column_241 Column_242 Column_243 Column_244 Column_245 Column_246 Column_247 Column_248 Column_249 Column_250 Column_251 Column_252 Column_253 Column_254 Column_255 Column_256 Column_257 Column_258 Column_259 Column_260 Column_261 Column_262 Column_263 Column_264 Column_265 Column_266 Column_267 Column_268 Column_269 Column_270 Column_271 Column_272 Column_273 Column_274 Column_275 Column_276 Column_277 Column_278 Column_279 Column_280 Column_281 Column_282 Column_283 Column_284 Column_285 Column_286 Column_287 Column_288 Column_289 Column_290 Column_291 Column_292 Column_293 Column_294 Column_295 Column_296 Column_297 Column_298 Column_299 Column_300 Column_301 Column_302 Column_303 Column_304 Column_305 Column_306 Column_307 Column_308 Column_309 Column_310 Column_311 Column_312 Column_313 Column_314 Column_315 Column_316 Column_317 Column_318 Column_319 Column_320 Column_321 Column_322 Column_323 Column_324 Column_325 Column_326 Column_327 Column_328 Column_329 Column_330 Column_331 Column_332 Column_333 Column_334 Column_335 Column_336 Column_337 Column_338 Column_339 Column_340 Column_341 Column_342 Column_343 Column_344 Column_345 Column_346 Column_347 Column_348 Column_349 Column_350 Column_351 Column_352 Column_353 Column_354 Column_355 Column_356 Column_357 Column_358 Column_359 Column_360 Column_361 Column_362 Column_363 Column_364 Column_365 Column_366 Column_367 Column_368 Column_369 Column_370 Column_371 Column_372 Column_373 Column_374 Column_375 Column_376 Column_377 Column_378 Column_379 Column_380 Column_381 Column_382 Column_383 Column_384 Column_385 Column_386 Column_387 Column_388 Column_389 Column_390 Column_391 Column_392 Column_393 Column_394 Column_395 Column_396 Column_397 Column_398 Column_399 Column_400 Column_401
feature_infos=[0.028739800536928938:3.3869786995793114] [-2.0759912335006345:0.93892509725372952] [-0.99049130066897562:0.87713114390785218] [-2.0559641000909501:1.7026161443098435] [-0.86646923348750782:1.1355964753754486] [-1.0778229632701699:0.82049630019787756] [-1.2223541120549306:1.0844690037299805] [-0.42388326033234364:0.97737464208642355] [-0.28868176281574698:1.7156572403488335] [-0.60319826760590234:0.4652872120321464] [-0.50785474624255733:0.27078982823036685] [-0.20265862605440957:0.59187671448295009] [-0.22074289912331369:0.30332530873482594] [-0.52311541080986679:0.36083474808747029] [-0.42559584656748717:0.51869590972484558] [-0.64799218205000741:0.43032652235677588] [-0.47133865524589702:0.33192427229439037] [-0.82240454863892032:0.62732162151169579] [-0.5472028157515727:0.20594160669373052] [-0.37974829646366076:0.49048066862078327] [-0.57511095759708186:0.5651878995414511] [-0.3647893639432867:0.53185767706376386] [-0.31341163510459841:0.31028702361246924] [-0.34011389062440789:0.86033675376823238] [-0.45574162522576939:0.84289392242224048] [-0.76299136979873161:0.77965279386288666] [-0.30787424931692453:0.56424215060395078] [-0.45509526068536121:0.26929469801916334] [-0.4031713835090992:1.1964726248706798] [-0.7733064012942692:0.16950170803379419] [-0.5354564723038524:0.2506234571676148] [-0.39428898107760163:0.45827081485803295] [-0.39550032063555735:0.4830120953402024] [-0.4842970284648247:0.1670645149369458] [-0.524186153645398:0.44091022775788008] [-0.1797488329100991:0.50943386723503059] [-0.26977364508855206:0.30714491462071203] [-0.24694129531867709:0.3396905098051623] [-0.35236646090832446:0.1066687371472497] [-0.26890961836843502:0.4365531704702581] [-0.43690038669445808:0.20354637131995174] [-0.54567245638660933:0.17860349182236074] [-0.25658402540087705:0.45588190315952243] [-0.3527491159052244:0.30879522938901305] [-0.31986320650784383:0.23691222899150718] [-0.23349725458352724:0.32037822424787615] [-0.25779699810903606:0.26062481423763223] [-0.18143706046325508:0.40006168368892053] [-0.54663779119757638:0.47366001611844005] [-0.13111038527977176:0.21883589420682803] [-0.16543859914772457:0.25235729555744996] [-0.33821266823462098:0.33444142253170822] [-0.27019948065695898:0.40698468275685951] [-0.22330093846038016:0.22518798297967971] [-0.334502306689961:0.31229432100147209] [-0.78651245295912631:0.27341691492400794] [-0.34307320791519152:0.35907934823623705] [-0.25752905224752665:0.20331701038470726] [-0.19548548985836753:0.2235450013166336] [-0.25777045943115101:0.27839129823483211] [-0.29691428678175824:0.61662653294561431] [-0.21971477854143254:0.46404862119329265] [-0.21243648586176947:0.23024952139745342] [-0.18367650707789634:0.25644888272520105] [-0.13732484046701932:0.2569895260780059] [-0.4396177411356445:0.23428594181363988] [-0.2528140531988512:0.14045518541329813] [-0.19066963301524845:0.18913105219160067] [-0.13452104264046333:0.40314186019345521] [-0.2617639383042869:0.16109485467026183] [-0.50046742272716926:0.11964889075114579] [-0.31005663893726082:0.2135582352544253] [-0.20890750157678323:0.32512868899938518] [-0.22313780363558167:0.25693008092035757] [-0.19856528708450094:0.21196780223647235] [-0.33314587311711852:0.31452419487211103] [-0.44117001795101102:0.17370429592957357] [-0.16334618491084738:0.22207693458910374] [-0.22785550403952382:0.36431369103503847] [-0.34245196790469562:0.16919214027084542] [-0.18545583827949993:0.34569537855960963] [-0.21218679276472127:0.15288025148216519] [-0.17132336683055335:0.26668592043014422] [-0.10768922266079316:0.16957903243896186] [-0.098625210008783909:0.19377556726379663] [-0.26841797290641511:0.16993109047285906] [-0.22485982132279325:0.13841958032985419] [-0.20180469431817713:0.13413768439761303] [-0.13181573856418946:0.33687456496747203] [-0.2623085317989331:0.32355883407537706] [-0.13558114007514688:0.11339750948746641] [-0.28459038932081965:0.35627597289260782] [-0.26122441184464656:0.16056757141841921] [-0.10235817537473063:0.27470816751200833] [-0.31063687350492775:0.21111670240804067] [-0.097599226407385983:0.14565747625930073] [-0.36775171480407337:0.13048902828137746] [-0.25268606906636887:0.19526363038789107] [-0.26721205592276448:0.44892147230999546] [-0.21683983857863626:0.20677738706553278] [-0.18172631769497757:0.19832015097395506] [-0.11582708588503533:0.12399103342389878] [-0.19792844545275315:0.15274824145943292] [-0.14756134014148128:0.14509383300178791] [-0.17745334282176012:0.20602780340569804] [-0.19021555842619076:0.12314180259218434] [-0.13678117441429855:0.20725914443382654] [-0.13071785014289755:0.30028412739219307] [-0.16616447994791225:0.16452000595335334] [-0.31194942111245549:0.23019298048571424] [-0.3584317373911291:0.11188114413354226] [-0.18160938593509865:0.22534168553588957] [-0.3039533956653156:0.26122100498696099] [-0.21753740316197367:0.14278986227931484] [-0.096944552620582117:0.11215052807020873] [-0.2815645921698649:0.14038692306322967] [-0.15252628677132471:0.24370945173060135] [-0.17292721337544248:0.24409549482083148] [-0.33309835692036199:0.30060747400628579] [-0.15912032623524761:0.16003611341795518] [-0.15845001471903705:0.30255343014490504] [-0.22484987442008006:0.17410048373151779] [-0.27180377907142672:0.16259954064504592] [-0.26421158012947232:0.14516345380553486] [-0.29520262626360716:0.17572971259576062] [-0.36016277925048606:0.15527979382644486] [-0.29350874028384144:0.16358923096767802] [-0.1539201584904499:0.18306888298093082] [-0.21122774063862554:0.3383851112643636] [-0.1924071791606187:0.14768348796558961] [-0.24716853874057321:0.253010105093808] [-0.27529499442277666:0.19721575804608926] [-0.28634138917545154:0.14660504069186747] [-0.27426802832102837:0.14229164952546725] [-0.18050303049089797:0.31244423559933582] [-0.14100394210146888:0.22892928431580478] [-0.14767837621039284:0.17593028010206238] [-0.1305983524041367:0.12968466802727097] [-0.22271880064170632:0.20372930180772233] [-0.17028699976408623:0.27590830304246727] [-0.26795483160281192:0.26088391295206453] [-0.18434043498650921:0.20362415597252068] [-0.138362662576028:0.25826590252865855] [-0.15253258541768153:0.16396677876138896] [-0.21358864470213304:0.28307987262965395] [-0.26036416054354694:0.095793278866127873] [-0.22753665103110687:0.26291897475778025] [-0.22115075682772847:0.13516035355434] [-0.18673949652721103:0.28085026905947702] [-0.14930781066616594:0.27792752551890193] [-0.24141102136984219:0.23399680229321662] [-0.29643598294470341:0.21536538088268059] [-0.16348586680304419:0.1718629159872124] [-0.18311310106998285:0.18731215303674467] [-0.13125298938044361:0.28518958456766558] [-0.26759703797102302:0.25355417241463801] [-0.18419323764541726:0.16917499233413916] [-0.19487696842471333:0.1190956379299255] [-0.19200033725931526:0.20257101870476069] [-0.16892446313361059:0.2779669238445196] [-0.19343431091116181:0.24611754973146183] [-0.14425491498963847:0.20388273613232513] [-0.15783600960716188:0.17242956467848305] [-0.19414597031003236:0.22401310799924934] [-0.15503053179022844:0.11094578000401427] [-0.27750581349902143:0.10680647884168361] [-0.34180947819597712:0.11588597031150051] [-0.10973047764336975:0.23129288749427421] [-0.23548930011834152:0.1982599187528552] [-0.16474879979426788:0.17149522346154977] [-0.21897581326462587:0.14422244069230819] [-0.16178312480812637:0.15131672682769645] [-0.12769394861841363:0.26756690221320167] [-0.17845771726689541:0.15258234696183143] [-0.11701579397010622:0.19235259840726546] [-0.20993602705243719:0.16641980903029926] [-0.37473587167775441:0.1655940886235733] [-0.15676452294759585:0.16831563738094107] [-0.20136732024112738:0.1945437724036807] [-0.098088927874343659:0.17549092571497238] [-0.20122316411678073:0.18980277035556961] [-0.13960703908398708:0.20663852290320514] [-0.13699200805791548:0.15423567758201481] [-0.22346417962454501:0.15504318438160813] [-0.25775037522130528:0.21557283989366063] [-0.15314007582157987:0.11506406511199745] [-0.10662445472017239:0.26660265283937451] [-0.2239887722466444:0.11273338155425472] [-0.12563106698827617:0.25564144424558116] [-0.20691962264891853:0.16428782734316649] [-0.12152937031228268:0.12591037416209988] [-0.12610253744847283:0.1268044962767855] [-0.13482542926107768:0.13637504922808188] [-0.16234423718648175:0.18672444732339136] [-0.17101044424774847:0.22300496497614292] [-0.18040474247681806:0.13165346902101469] [-0.11343468520311839:0.21289564197162525] [-0.16495219681425066:0.18690615235426941] [-0.16685224959367878:0.13740224925426836] [-0.22420444516561486:0.20617194516673729] [0:80.113097467069565] [-24.780626832254566:20.805284794139375] [-14.773619714462511:14.915345029370954] [-31.021622773492997:14.674135048604342] [-11.21309802538515:15.480822334526847] [-13.440191390851037:14.378219299529976] [-9.2650069817557981:22.009091833235313] [-8.5764869871965956:11.67216954230028] [-6.5242988213698805:14.438576261383361] [-8.0955028937955973:11.109808906536008] [-14.108855110785411:5.9357024050575546] [-9.6876849286561111:9.7294808541834055] [-7.0346375323281416:21.683344950084287] [-7.3333726350287121:8.842153586698613] [-8.5715942096352045:12.234377751890802] [-6.8563871550917321:5.6079727204710847] [-8.3800729164107199:5.5026435473850164] [-8.7558881931808585:4.3245769726834968] [-8.8494810046820209:4.7171561796354649] [-8.959998055945027:8.9069628961420282] [-8.621902488851509:6.618325677965041] [-16.942155232614574:6.0962979623221711] [-4.8489155481788755:5.1885814538659014] [-5.3730149766185855:8.4387491009284865] [-7.4325980808166525:10.896666583136517] [-12.055542482139924:15.809820010369309] [-8.035625758601185:4.0352642482462135] [-4.6430862025214408:8.195413617335765] [-4.3674832890991944:5.4896426036398367] [-6.2723087783968063:9.4499664199973044] [-4.2998095977789887:5.7822212244358786] [-6.5607519433344317:11.041461758313995] [-7.8919118811886975:4.1656263272619061] [-6.0814996103579864:5.4895325353340239] [-4.6750132527273456:7.3345612166826619] [-4.2949800056347165:4.0395926388611354] [-4.6266973892294789:4.4750392996581887] [-6.9753004945242258:7.0462846027370771] [-7.5891457800216404:4.5280799236848281] [-4.9297346227429486:5.879950849411931] [-6.7945576782219002:4.1531418078449596] [-7.6207954509618521:4.0811578222976292] [-9.8793047940628274:7.3568476449433504] [-8.8875727868337204:4.4582786563134773] [-4.6834737167555573:6.8637222197660677] [-4.1188235933249437:5.5932243033130522] [-6.4798207789824316:7.6213418841445053] [-3.0130488319941184:4.5685391177285668] [-3.5379551483026814:4.4559515967956242] [-4.3792293897250696:5.8728160676038357] [-10.485012721755597:4.2629867740782474] [-7.076091851448612:5.6753058474272251] [-4.1216972255172948:5.8335177519618471] [-6.4363075840245143:5.4215311990741863] [-4.3773259728065241:4.8701865107753362] [-4.0445482144152871:4.3153785811956773] [-4.1005752626593903:3.170181055730982] [-3.8734185298501713:3.0245320946500782] [-4.5490330039730145:5.709624638108413] [-3.9560803004835789:4.4441240187814035] [-5.329102308942927:4.8131948894030367] [-3.2397935395418953:6.1973390719567272] [-5.037990082707597:6.6226935405345255] [-4.4454352355063467:3.898013344608056] [-3.7290968498201496:6.8844977091759523] [-3.1402710803419183:8.7348451107825245] [-4.4239500202648436:5.4117617886313063] [-6.2319496103228085:4.0111424152088437] [-10.497450049009803:4.4260977825587791] [-8.167466119936412:4.8474037501309555] [-5.650658846174589:6.4901212493261795] [-3.251973040273533:3.6120887111994042] [-4.6754610659672382:3.7301328680497536] [-4.8629229086506935:3.3362203099535774] [-5.1207088409259365:3.2788042704373059] [-3.1188373245221115:6.7174019821122677] [-3.9853041116399472:5.3105818334855028] [-3.1434752535766908:3.6071340743719102] [-2.4919894324563474:5.803427927055206] [-3.1842383098741096:5.6671642616034452] [-3.5060547231188797:2.3947883989008196] [-5.8117853878501222:3.5506664795192679] [-6.467664199532221:3.5938370600037199] [-6.5952552768609642:2.8018467424416595] [-6.8603919513273715:10.364121749936249] [-5.9807460710761671:3.8715165968770853] [-3.2964598165280914:4.5127104716768836] [-4.7516784242331713:5.6236771503774223] [-4.8773176634424864:4.6024958981033413] [-3.7378268225286595:2.7286538838689407] [-5.5436678933841037:5.2994815746056672] [-4.7755203824049977:5.0637822051764108] [-3.9409621455382489:3.3101888521771805] [-3.0064496167702655:7.2909974238893804] [-5.1488000457658396:5.8781560217873725] [-4.0660565153161503:3.5550186783551379] [-7.5992671400235734:3.6282489134385845] [-4.0564012424074587:3.795722271374069] [-3.9420208260604346:4.1351185423896837] [-4.8583967735041771:5.4986127402395377] [-6.054474364882779:3.094830357719939] [-3.8237701439099627:4.0485230479434859] [-4.1709404561594932:5.3315336596138536] [-4.6593858150564982:2.407027361473415] [-3.5757577344458018:6.0532571808739482] [-4.647463526721979:3.7187167058683719] [-3.1925003616157035:3.8663115438059537] [-3.096343214636001:3.9186956969626214] [-4.9634713294604129:3.7240692760108938] [-3.8872230511501233:3.8368403457310385] [-4.9747954030265404:2.5378644311751857] [-6.5873302834574856:4.7375070012031193] [-3.5839008313187319:3.6042622843634287] [-3.7395162593256388:4.5689469900054869] [-7.1321062040792382:4.0684082803359187] [-5.9692129420015911:5.931772087707289] [-4.304145950474668:4.9618103266368943] [-2.9220305572332426:7.1942109830533809] [-3.9026987080739257:4.9339150816421116] [-4.9314253486521515:8.7042026125915566] [-3.9399576328677997:3.4442767758827375] [-2.6966230960815936:2.7237978721729754] [-2.3172336901828725:4.3605310713735213] [-2.9319474242437802:4.3794018527968115] [-3.7083827266268052:5.7574288365197379] [-3.4033741558727701:2.3796388573273179] [-4.2645930677981614:3.3204621848393261] [-3.4193453726196679:4.0097803437427739] [-3.801136536348749:2.8782288440746062] [-2.2062677899440892:4.5162706198409888] [-3.3599199662028409:3.9766027932382939] [-3.3423720433872397:4.620330432348525] [-3.5979791721672401:5.8381434796645211] [-5.2955262523620261:2.6579278963155848] [-3.0887039462807588:4.9317908079880937] [-3.2605274567783971:3.0662025216557813] [-3.6932839731948568:3.1622762849801798] [-6.2323898823244965:4.4098404971354359] [-3.2722190317249251:2.548299615055627] [-3.810828971221746:2.8526362061343584] [-4.261336794694575:3.0519783764517241] [-4.0515591036480281:4.2734702338563499] [-3.2112113505007764:3.665745508225374] [-3.1040722757081509:3.7275470720632655] [-2.2803889130524682:3.7442948027961589] [-6.4396719304564103:3.9536685945026488] [-3.2928382905117819:2.789380391865659] [-3.3278955159167265:2.199125184126753] [-5.6841080120323291:4.1356601012629772] [-3.6055869512951055:5.6692536344794942] [-1.967267087104914:5.4695549461043376] [-9.541066084509648:2.3530629783132229] [-4.2303958340925218:3.6417223350194381] [-4.1753506181589328:2.7880860164883763] [-3.4018586959611459:2.5424530775929086] [-2.8649000941753893:3.4775025602550795] [-2.4225626552787363:2.5508514818308181] [-3.3642443635133468:3.2039846086195674] [-3.5823434268065544:3.7796585331415624] [-2.9274863380058158:3.9005907213538502] [-4.698170470863122:3.5778015410341522] [-3.7271760393321185:3.5412127174102004] [-2.4764314548196213:4.4277952265713783] [-3.9100485817902366:2.492639320763399] [-2.5853199114211414:3.6691190105968503] [-2.5474533072658065:4.2675774478584252] [-2.9365563196788882:3.3280988091161481] [-3.36384455442166:5.4419285176389236] [-2.4090696322623475:3.2930978328016174] [-3.0974517128737289:4.4158174516636439] [-3.3741050739783702:2.5602986240870496] [-4.0556985239415555:3.2365762796029314] [-4.6891913382217085:2.3164343295646304] [-4.2089705127523853:3.6255171345604302] [-2.6374357343696895:3.9276514113287866] [-2.7124958384840521:2.3823945118834695] [-2.7650017850444648:2.8000297100816307] [-2.852565874694438:3.2007273836006718] [-3.0749661159808275:3.6071952247257779] [-2.1988987756635874:2.1953919193836011] [-2.5497930692769719:2.5890712550419757] [-3.2237637184824877:2.659395656587177] [-2.841225935882671:2.2483172944486443] [-2.4691413618684357:3.591204863743195] [-4.8029823596913017:3.2684889913194013] [-3.2994332069412566:2.527965138505134] [-2.9320877986968417:2.2585622651332065] [-3.5871297528232842:3.7546909045878372] [-5.8545451538674476:3.0367159408704238] [-2.1050650795984458:2.9243002460314944] [-2.2431218384877321:2.5468468172832561] [-2.9997518598729771:2.4467370859584827] [-3.6627335970699151:4.267929434389182] [-4.00731002038511:2.787626448052666] [-3.2790398891730397:3.8799450068002916] [-3.1428951007097123:3.3739299689049997] [-2.2272037185955691:2.9918690578231528] [-5.0322047774922787:2.3765542006362446] [-2.5412212658749556:3.7007636885276241] [-3.1344448556269651:2.6848951034697874] [0:0.17391304347826086] [0:1.047169396219592]
tree_sizes=4479 4461 4455 4457 4444 4448 4445 4446 4460 4438 4450 4456 4449 4441 4455 4457 4456 4454 4450 4450 4446 4439 4437 4459 4446 4467 4447 4466 4465 4456 4460 4465 4450 4458 4458 4467 4461 4471 4475 4460 4477 4478 4439 4458 4462 4473 4468 4473 4480 4487 4468 4473 4472 4488 4479 4498 4489 4484 4474 4480 4479 4486 4483 4493 4491 4487 4490 4492 4492 4490 4502 4485 4485 4486 4492 4493 4497 4507 4500 4488 4500 4492 4490 4487 4507 4505 4514 4513 4496 4504 4511 4522 4514 4499 4527 4506 4510 4519 4520 4502

Tree=0
num_leaves=40
num_cat=0
split_feature=255 207 242 293 324 400 300 289 218 241 237 311 309 20 333 292 400 235 152 52 229 141 361 13 224 187 227 268 137 287 333 15 253 10 60 58 339 131 293
split_gain=10.3816 7.38327 5.55658 5.51118 4.05893 3.38051 3.22652 3.22369 3.13543 3.13437 3.61672 2.60669 2.60333 2.45892 2.57533 2.26749 2.22949 2.47122 2.36905 2.20809 1.97643 1.94862 1.95116 1.90997 1.90913 1.99454 1.90607 1.85698 1.81638 1.7449 1.73578 2.28283 2.13069 1.70637 1.7026 1.61323 1.5894 1.8122 1.58844
threshold=-0.054676283682746289 0.85602486712755554 1.7183061145507408 -0.099829069848428084 -0.044940714318183132 0.039510853404698197 0.13759238994165127 0.083748154670192698 0.2878843325194787 -0.41153896551926999 1.0032665992435992 0.39700986946056965 -0.24988465030982748 0.11408455495648281 -0.50274775777816394 -0.15184324096415383 0.014311315924219152 -0.39143210167636083 0.024226847002111283 0.031662065040944445 0.49457720093905283 -0.02155813627229133 0.01560476001371027 0.17002193469030072 1.7852429988905392 -0.051022911416555593 0.44849695355473801 -0.25946887479129771 -0.014329918762839832 -0.16745334622818267 -0.12223945131568482 0.019476883420542008 -0.32231057638251998 -0.16155873764453507 -0.032990606617216194 -0.035168101802891101 -0.22856991938183471 0.0054592212048959502 -0.1435454076988254
decision_type=2 2 2 2 2 2 2 2 2 2 2 2 2 2 2 2 2 2 2 2 2 2 2 2 2 2 2 2 2 2 2 2 2 2 2 2 2 2 2
left_child=2 6 7 5 -5 12 11 9 26 10 19 -2 33 24 -15 -13 -9 28 30 -1 -20 22 -10 -4 25 -11 -8 -27 -18 -7 -19 32 -32 -3 -28 -14 37 -33 -16
right_child=1 3 23 4 -6 29 8 16 21 13 -12 15 35 14 38 -17 17 18 20 -21 -22 -23 -24 -25 -26 27 34 -29 -30 -31 31 36 -34 -35 -36 -37 -38 -39 -40
leaf_value=0.023026035025649063 -0.023027436248604038 0.013198747037602961 0.029277129870574223 0.0050979680698756162 -0.016972252355463555 -0.0022469414147773046 -0.024104798888410585 -0.018085425076068532 0.027465935053620633 0.015056665208921712 -0.025238281248376272 -0.03121999118552982 -0.009469491380677127 -0.0274413279017405 0.025526354205387434 0.0083247771579609345 -0.02762368112425197 0.021009849317224539 -0.018361105581606321 -0.0065005356641706273 0.013890754652853356 -0.0066865320233701177 -0.018471327278227073 -0.00080995458804657247 -0.032436808784817188 -0.023155475218036271 0.021878744987361247 -0.00016681020619338388 -0.00060859621315023833 0.032257297008211346 0.034098581507881802 0.0034465222300042999 0.0015806049106970484 -0.021042886329063877 -0.010447986382554213 0.016416916955115716 0.0083610622592425899 -0.03151871508930839 0.0068499495671989355
leaf_weight=9.0571463154628855 13.104415262816479 0.80312436982058022 4.9707898334600022 5.8288419246673584 7.7849143358180282 0.71479790657758746 3.5883684761356545 2.9998307770583805 2.0699981756042694 2.4759519770741463 0.76964424317702729 0.79169185087084804 1.1978617385029782 0.62409548903815437 3.1884289482841268 2.1690719841280943 1.8967925899196418 3.360603665700185 2.7152229477651413 1.1406907766358934 1.0554767362773416 2.1421282743103802 0.45030293299350876 1.0165702824015168 0.81248833984136659 1.8330136036965994 0.80550896772183467 6.026827018125914 2.0951847007963869 3.2600261913612476 1.4690996834542605 1.0348758921027212 1.7856831587850965 2.1156170996837309 3.4130965578369796 4.9108477642294055 1.7659853856312082 1.3883407780667765 4.2490713250590471
leaf_count=335 891 45 178 381 523 48 319 258 79 143 80 62 98 35 127 110 117 158 164 85 67 160 44 68 53 174 31 478 160 71 33 28 116 170 278 250 124 60 238
internal_value=0 -0.00620555 0.0059281 0.00137138 -0.00752271 0.0106837 -0.013273 0.00381747 -0.00563941 0.00803764 0.0165681 -0.0191981 0.00391687 0.00316734 0.0115819 -0.00224927 -0.00208753 0.000497183 0.00431572 0.0197233 -0.00933331 0.00733809 0.0192583 0.0241688 -0.00291745 -0.00059696 -0.0133897 -0.00552806 -0.0134448 0.0260524 0.0090791 0.00369294 0.0162581 -0.0116209 -0.00427546 0.0113408 -0.00606953 -0.0165862 0.0148565
internal_weight=0 55.1506 57.7318 26.616 13.6138 13.0023 28.5346 51.7445 12.4694 30.1774 10.9675 16.0652 9.02745 19.2099 8.0616 2.96076 21.5671 18.5673 14.5753 10.1978 3.7707 4.66243 2.5203 5.98736 11.1483 10.3358 7.80697 7.85984 3.99198 3.97482 10.8046 7.44398 3.25478 2.91874 4.21861 6.10871 4.1892 2.42322 7.4375
internal_count=6839 3560 3279 1586 904 682 1974 3033 911 1748 500 1063 563 1248 400 172 1285 1027 750 420 231 283 123 246 848 795 628 652 277 119 519 361 149 215 309 348 212 88 365
is_linear=0
shrinkage=0.02


Tree=1
num_leaves=40
num_cat=0
split_feature=242 400 255 200 54 353 207 234 59 239 312 400 254 103 140 207 374 248 284 398 275 293 262 373 207 101 232 284 297 212 175 305 225 99 299 325 86 222 205
split_gain=23.1272 27.5054 11.3397 10.728 10.382 10.3211 8.30695 7.61416 9.00646 7.54483 7.53135 7.00272 6.85839 6.67642 6.42522 6.28734 6.19727 6.11965 6.00058 5.85474 6.17771 5.81224 5.3415 5.09908 5.05477 5.05201 5.09042 5.01503 4.99834 4.79138 4.45755 5.38107 4.44917 4.40284 4.35694 4.3421 6.00799 4.30141 4.23147
threshold=1.6302984989500255 0.039510853404698197 -0.13113192129203557 15.287915357578749 0.016031113924017876 -0.11390823032214346 2.0076637052004735 0.49584065030103602 0.041850860324996748 0.042074942994047966 -0.6155478298871655 0.012024096385542171 -2.4873580339438566 0.013274778543779248 0.029706043489918694 0.85602486712755554 -0.06971210456142761 -0.44111605774080326 0.79063464724363208 -0.12747782664680879 -0.29668701205454101 -0.21256157666802269 0.24635943557758511 0.045926146973040684 -0.90787490482661592 -0.055755442525665624 -0.77960351513824888 0.11822816959857818 0.085489640260573291 -1.0387371691015577 -0.0047741987633807235 0.59957692102989157 0.8428604621479715 -0.031799321337260177 0.67992917074305903 0.50776791884356609 -0.017453052824660083 0.8278746808445312 -0.41668787525802714
decision_type=2 2 2 2 2 2 2 2 2 2 2 2 2 2 2 2 2 2 2 2 2 2 2 2 2 2 2 2 2 2 2 2 2 2 2 2 2 2 2
left_child=1 2 7 4 28 15 16 11 10 13 -9 -1 -4 -5 18 -3 27 -17 19 20 -13 -8 23 -12 -14 26 -26 33 -2 -21 -27 37 -28 -7 -18 -11 -37 -32 -16
right_child=3 5 12 9 -6 6 21 8 -10 35 22 14 24 -15 38 17 34 -19 -20 29 -22 -23 -24 -25 25 30 32 -29 -30 -31 31 -33 -34 -35 -36 36 -38 -39 -40
leaf_value=-0.026517463607879418 -0.01319593334358889 -0.00019449560004212519 0.037132765649276908 -0.0214112000083778 -0.035286150587935342 0.027940104712919363 0.033581217703371469 0.029864302736144745 -0.023518714784843135 0.03044831952107533 -0.00028369643729911972 0.02052965439529093 -0.026319232190340731 0.022159437637138672 -0.0085470156556473071 0.00019319336287940917 -0.015558654747118109 0.030129353910705561 -0.032677787653026195 0.0076554213504244984 -0.006971892344290867 -0.00029357754733815277 -0.012877686963404534 0.024731589780188822 0.01958155697579074 -0.022653401877277858 -0.020756853621190108 -0.019373409076414102 0.027598609697896438 -0.0160730455604195 -0.018566371568181521 0.0086208060358065539 0.01353718181643258 -0.0014987321509385392 0.029891509268963109 0.027383347505742152 -0.018117802362817598 -0.00083016365565262169 0.025499683918189839
leaf_weight=6.1511342618614426 1.9596833689138273 5.1601552092470255 1.0785194393247355 2.8726860480383065 2.9697914673015475 4.5873182434588662 4.7955162888392806 6.1856474522501292 3.4989055902697137 17.547818901017312 7.1525126826018113 6.1813561911694705 10.724665617570279 2.7566882083192468 2.1675113770179451 3.3281124234199586 13.031475817319004 15.235884814057494 3.3083821935579172 4.3047246909700325 6.9301322223618573 3.5082466448657197 5.1721545029431573 5.9883167394436896 3.8179056476801634 16.28865121491253 4.5213404810056073 2.1546348095871517 3.1047534681856632 16.26688373321668 18.978750961832713 5.2935869586653999 2.2744388310238719 3.6482766219414762 0.90206726733595211 2.8763206843286753 1.9461541445925821 7.6839874903671435 4.4743527784012249
leaf_count=284 36 178 8 79 34 68 49 76 115 141 202 101 573 29 52 66 352 152 126 104 209 113 185 98 76 775 235 80 33 558 884 174 56 113 22 28 35 261 79
internal_value=0 -0.00259976 -0.00711573 0.0147755 -0.00559674 0.0092964 0.00199773 -0.00184704 0.00649723 0.0206211 0.0107841 -0.00653965 -0.0129153 -7.47854e-05 -0.00372332 0.0193342 -0.00389859 0.0247625 -0.00697538 -0.00445086 0.0059936 0.0192695 0.00433933 0.0111158 -0.013691 -0.01139 0.00110247 0.00779191 0.0118132 -0.0111077 -0.0141383 -0.00979808 -0.00927919 0.014899 -0.0126162 0.0258291 0.00902094 -0.0134549 0.0143889
internal_weight=0 204.796 148.444 36.0339 8.03423 56.3517 32.6275 77.782 27.9975 27.9997 24.4986 49.7845 70.6618 5.62937 43.6333 23.7242 24.3238 18.564 36.9915 33.6831 13.1115 8.30376 18.313 13.1408 69.5833 58.8587 10.6137 10.3902 5.06444 20.5716 48.245 31.9563 6.79578 8.23559 13.9335 22.3703 4.82247 26.6627 6.64186
internal_count=6839 6424 5231 415 103 1193 797 2189 676 312 561 1513 3042 108 1229 396 635 218 1098 972 310 162 485 300 3034 2461 367 261 69 662 2094 1319 291 181 374 204 63 1145 131
is_linear=0
shrinkage=0.02


Tree=2
num_leaves=40
num_cat=0
split_feature=242 400 293 255 208 13 367 255 365 351 347 190 207 293 282 90 363 272 348 262 201 79 356 21 242 277 155 52 242 140 332 352 327 130 289 370 367 239 251
split_gain=38.068 33.8039 17.6444 13.9432 9.17557 9.17535 8.33074 7.58252 6.71652 7.04277 6.25198 6.23438 5.55603 5.80488 5.49079 5.2016 5.03224 4.94853 4.70592 4.52431 4.42181 4.30457 4.78495 4.69265 4.22315 4.0194 3.95997 3.9366 3.82217 4.1796 4.53865 3.71629 3.59683 3.5311 3.4544 3.39509 3.32261 3.17037 3.13178
threshold=1.6302984989500255 0.039510853404698197 -0.15298610162587389 -0.046494651561345739 -2.9104057111042692 0.17002193469030072 0.94554006523406553 0.12882707942580121 0.40254265927299709 0.55168425575356983 -0.2515697557171061 0.069421314906580142 0.68343473035273328 -0.72235428549031477 -0.53255466809171936 0.0061712153229933802 0.44502751782441868 -0.33027549622143376 0.67098385593333032 -0.020094869813705746 7.1411862330616014 -0.065499271923407543 0.11289867370478211 -0.051494249949347322 -0.41346752617397659 0.51002045833809184 0.0035862072359740408 -0.021974035361247712 0.91190552181939677 0.029706043489918694 0.050540628294635181 -0.270666459095877 -0.26599338421874358 -0.0070291320652963165 0.054171479564295584 -0.10239178456458023 -0.71300395405012018 -0.32625920835303207 -0.73445263926558446
decision_type=2 2 2 2 2 2 2 2 2 2 2 2 2 2 2 2 2 2 2 2 2 2 2 2 2 2 2 2 2 2 2 2 2 2 2 2 2 2 2
left_child=1 3 11 6 15 7 8 31 9 16 -4 17 -6 26 -11 -5 20 33 -7 27 28 -12 23 -23 -18 38 -14 -15 29 -1 32 -2 -31 -3 -16 -29 -21 -19 -8
right_child=5 2 10 4 12 18 25 -9 -10 14 21 -13 13 19 34 -17 24 37 -20 36 -22 22 -24 -25 -26 -27 -28 35 -30 30 -32 -33 -34 -35 -36 -37 -38 -39 -40
leaf_value=-0.020780223652209086 0.0059432655789374202 0.021307875363723437 0.013654541284505781 -0.025840791115197704 -0.025610106966320524 -0.015739912182236394 0.025022376466807019 -0.010568724541315574 0.0074638655272101645 -0.027591330795900197 -0.02159539097069994 -0.005287317353854566 0.021015017042726361 -0.020543528835339716 0.022384743195853679 0.027352776123702113 0.019255466961102596 0.0052654259198027043 0.031259777700239508 0.015333066536047647 0.0090350108320889615 0.012029824444608095 0.013495707039276666 -0.021741256867478739 -0.010148165566169076 0.034377911783624947 -0.018241846349238439 0.015677227065733306 0.0025174890148000166 -0.023655763400755318 -0.026674356369929958 0.028182865263995317 0.021915742201986898 -0.022911355929937326 -0.011472402101106465 -0.014307537914242763 -0.025014460429822496 0.029565359772188896 -0.030430915025025148
leaf_weight=28.894836348481476 3.4041843470186057 1.4437014348804953 7.269019277533519 0.98978710942901615 23.604446260491386 4.1141475844196966 0.78014597762376048 2.522771048359572 13.927468833047895 1.414167991839349 6.349990260554482 3.325786833651363 3.0794346346519914 4.5204281087499112 5.8655845792964083 2.8602028572931886 3.7208949066698551 2.4033190757036307 1.0747566260397432 0.86131691746414318 3.1786183803342274 2.3723110994324124 5.1353150783106685 5.3745458284392882 4.1143127316609016 3.3279676642268896 1.54275806248188 3.8426689221523702 4.1997385900467625 0.91604831349104676 1.9692225353792308 25.662125711329281 2.8423450831323853 1.4456995660439194 1.5171905895695088 2.4887199564836973 15.656720850151023 20.186768610496067 0.85257273004390211
leaf_count=1231 47 26 170 58 1356 93 12 100 378 60 222 82 86 234 93 37 73 48 13 18 74 59 135 229 136 16 66 81 139 19 59 162 51 47 67 104 751 175 32
internal_value=0 -0.00356596 0.00963101 -0.0088948 -0.0161818 0.0186427 -0.00330681 0.0226914 -0.00502109 -0.00798672 -0.00214638 0.0204663 -0.0182495 -0.0128187 0.00851148 0.0136773 -0.0108989 0.0238279 -0.00600506 -0.0163197 -0.0136439 -0.00811852 -0.00147539 -0.0113996 0.00381545 0.0217682 0.00791218 -0.00628748 -0.0155008 -0.0176864 -0.00207861 0.0255782 0.0108084 -0.00081703 0.015427 0.00389092 -0.0229106 0.0269801 -0.00393421
internal_weight=0 192.274 55.3065 136.968 59.4465 36.778 77.5211 31.5891 72.5604 58.633 26.5012 28.8053 55.5965 31.992 8.79694 3.84999 49.836 25.4795 5.1889 27.3699 42.0008 19.2322 12.8822 7.74686 7.83521 4.96069 4.62219 10.8518 38.8222 34.6225 5.72762 29.0663 3.75839 2.8894 7.38278 6.33139 16.518 22.5901 1.63272
internal_count=6839 6424 1193 5231 2791 415 2440 309 2380 2002 815 378 2696 1340 220 95 1782 296 106 1188 1573 645 423 288 209 60 152 419 1499 1360 129 209 70 73 160 185 769 223 44
is_linear=0
shrinkage=0.02


Tree=3
num_leaves=40
num_cat=0
split_feature=242 400 293 255 367 208 293 241 286 365 190 140 362 334 332 255 225 207 120 155 10 256 262 207 52 284 251 370 237 331 224 353 343 288 71 129 337 357 370
split_gain=30.7197 28.8293 13.2187 12.7167 9.0951 8.98096 9.03986 6.12148 6.32945 6.32664 5.96227 5.89071 5.61932 6.9744 6.87643 5.54731 5.42289 5.09306 4.71366 4.57201 4.56524 4.3282 4.29937 5.76005 5.16144 4.07142 5.3873 4.0601 3.94937 4.16372 3.87332 3.76194 3.74483 3.61944 3.60689 3.49314 3.38736 3.09726 3.09135
threshold=1.6302984989500255 0.039510853404698197 -0.15298610162587389 -0.046494651561345739 0.94554006523406553 -2.9104057111042692 -0.72235428549031477 -0.40262614912085659 0.30861242050541099 0.40254265927299709 0.069421314906580142 0.06070430370332848 -0.11215302623788105 0.57668579529398145 -0.17687252456989411 -0.13567792194355838 0.72269565274847813 0.88222850363993033 0.033393179502653553 0.0035862072359740408 0.036287224022950162 0.25400795864601627 -0.013414036976092046 0.68343473035273328 -0.021974035361247712 0.39366212412737922 0.11833634792143959 -0.10239178456458023 -0.66017107456812696 -0.35616870288202318 -0.15947500998608163 -0.56472610668075052 0.067277487576194075 0.60899578159808254 0.060013966243262627 -0.022790246602396164 0.42611402054489705 -1.0448488811515573 -0.28186048829796045
decision_type=2 2 2 2 2 2 2 2 2 2 2 2 2 2 2 2 2 2 2 2 2 2 2 2 2 2 2 2 2 2 2 2 2 2 2 2 2 2 2
left_child=1 3 10 4 7 18 17 8 25 11 28 31 20 14 -14 21 38 -7 -5 -19 -2 -4 23 -8 -25 26 -1 -26 32 -30 -18 -9 -3 -10 -11 -16 -22 -24 -17
right_child=12 2 15 5 -6 6 22 9 33 34 -12 -13 13 -15 35 16 30 19 -20 -21 36 -23 37 24 27 -27 -28 -29 29 -31 -32 -33 -34 -35 -36 -37 -38 -39 -40
leaf_value=0.011053761556544736 0.027847161762634721 -0.01940447279902097 -0.00098946599852411813 -0.018504553652927663 0.022612013008809134 -0.026461712807640429 -0.027923380422992403 0.0029746405761866511 0.019719156328902331 -0.0089785131135939316 -0.011618111901198809 0.010375383027577009 -0.026833223353516959 0.028423891387578306 -0.010724740402231443 0.0048470418396829142 0.0216202952566249 0.021532774076017405 0.027138284092058065 -0.021714598292770317 -0.024176818211477019 0.02359264684643864 0.028206720542566878 -0.023326027401816423 0.015046921855449716 -0.021514177107848545 -0.014108229860714156 -0.017709407605732093 -0.0052250927185589257 0.026400002302999884 -0.014445196122234855 -0.020022615302142128 0.020423181332718882 -0.018593631129920185 0.014917398113577895 0.018194121712928665 0.026436950365539121 -0.027502192908161593 -0.026305907331351519
leaf_weight=8.2278258579317534 17.218402805272493 1.7647056854330068 7.8052313437219727 1.327330847037955 5.1739961290732017 1.8387086722068477 7.1626125408802208 3.2207854459993568 8.6364790122024697 4.6844384858850372 2.4767741849645963 3.4503862019628277 2.9294136590324316 4.739050665870308 2.4336712260264877 1.5703627290204156 2.7775027053430676 4.3769365246407688 2.8448071195743978 1.2590681947767732 1.2597544931340956 4.5265802971553057 0.40560035081580537 3.9389491765759885 5.0155595969408751 4.3431595684960476 5.8049778991844496 2.1677667633630318 1.8067717775702572 21.258965481538318 2.0854915492236605 24.401977387955416 2.0313373012468219 1.1134723378345359 5.4852291783317924 5.3296782365068829 0.91168715339153994 25.292032772907987 6.753934333799406
leaf_count=218 140 38 251 67 60 111 459 110 127 156 82 65 84 37 34 50 53 84 28 66 42 89 9 237 82 188 230 105 38 192 77 1130 28 46 110 67 11 1543 295
internal_value=0 -0.00324323 0.00891768 -0.00836813 -0.00296796 -0.0156043 -0.0178925 -0.00487589 0.00231856 -0.0097822 0.018074 -0.0142635 0.0172334 0.00822748 -0.0007236 -0.00160902 -0.0106263 0.00244184 0.0126174 0.0118714 0.0244009 0.00803377 -0.0213483 -0.0139353 -0.00492715 -0.00459236 0.00064495 0.0051618 0.0208117 0.0239228 0.00615364 -0.0173412 0.00190809 0.0153437 0.00391026 0.00912858 -0.00292646 -0.0266229 -0.020429
internal_weight=0 185.03 54.8577 130.172 74.5427 55.6294 51.4572 69.3687 28.1259 41.2428 29.3386 31.0731 34.8217 15.4318 10.6928 25.5191 13.1873 7.47471 4.17214 5.636 19.3898 12.3318 43.9825 18.2849 11.1223 18.376 14.0328 7.18333 26.8618 23.0657 4.86299 27.6228 3.79604 9.74995 10.1697 7.76335 2.17144 25.6976 8.3243
internal_count=6839 6424 1193 5231 2440 2791 2696 2380 809 1571 378 1305 415 222 185 815 475 261 95 150 193 340 2435 883 424 636 448 187 296 230 130 1240 66 173 266 101 53 1552 345
is_linear=0
shrinkage=0.02


Tree=4
num_leaves=40
num_cat=0
split_feature=242 400 241 293 365 262 303 237 293 255 190 123 13 367 319 255 225 256 365 227 111 276 224 234 398 152 283 230 370 107 296 240 260 331 175 149 250 207 200
split_gain=31.9276 30.0547 11.524 11.4144 10.949 8.14269 8.9822 7.36661 6.78994 6.02344 5.42456 5.37476 5.01921 4.99742 4.91263 4.76401 5.04399 4.77348 4.7447 4.42527 4.38377 4.3352 4.23379 4.11 4.00726 3.79897 3.61507 4.27725 3.48205 3.36491 3.31991 3.22543 3.55517 3.20127 3.02487 2.9886 2.97805 3.42138 2.98996
threshold=1.6302984989500255 0.039510853404698197 -0.52894621578324119 -0.15298610162587389 0.68884427897020484 0.17282508385652143 -1.3518232629473657 0.34357725311670334 -0.64386809108705467 0.12882707942580121 0.069421314906580142 -0.044811975889026266 0.17002193469030072 1.3359194163125261 -0.27118706226675687 -0.13567792194355838 0.72269565274847813 0.18668389097569824 0.41454357647034906 -0.21748405034265497 0.1687576265217586 -0.71397320525488417 -0.15947500998608163 -0.2481122928786845 0.15865966425322106 -0.02397373413978502 0.14802300116929615 0.32841816534720891 -0.28186048829796045 -0.039393253964646158 -0.53513106023095414 -0.12075325167342506 0.86389635168892354 0.95155530603948224 -0.020714808044553622 0.049797446775013937 -0.9523590502196434 1.3291891530151234 5.9396655851841276
decision_type=2 2 2 2 2 2 2 2 2 2 2 2 2 2 2 2 2 2 2 2 2 2 2 2 2 2 2 2 2 2 2 2 2 2 2 2 2 2 2
left_child=1 2 5 10 8 7 -7 14 11 12 26 -4 30 33 -1 17 28 -5 -8 -20 -9 -11 -18 -13 -14 -6 27 29 -17 -3 -2 35 -33 34 -10 -16 37 -36 -38
right_child=9 3 4 15 25 6 18 20 13 21 -12 23 24 -15 31 16 22 -19 19 -21 -22 -23 -24 -25 -26 -27 -28 -29 -30 -31 -32 32 -34 -35 36 -37 38 -39 -40
leaf_value=-0.011151950227877584 0.0026709646632500162 0.00062769298884426559 -0.029010401246745855 -0.0037274077713784094 -0.013856352298806945 0.034475033951387728 -0.021545636683449113 -0.020544563577225464 -0.028810387850484828 0.026496773763322632 -0.012211717312145097 0.019435223133802474 -0.030243156610281478 0.026075638987832196 0.02877484842523784 0.0045579970215511361 0.019527839325143483 0.020732651173071208 0.026778238714020363 -0.023372253746089196 0.030400003224368897 -0.019412698256893339 -0.019306622352998928 -0.008174723995441396 0.015232671925308555 0.015287983961447796 0.026409000940830787 -0.010406029519385499 -0.028598531946374448 0.025839784123330642 0.025944385266844196 -0.0028423831198983525 0.034628671867039031 0.00089603075061882038 -0.021829203199832687 0.00045449910891690341 -0.0012995339567918179 0.011486456341290027 -0.021083196956614134
leaf_weight=2.8880480783991578 2.7279183631762924 3.0782804815098661 2.2046091775409868 7.0231448444537836 2.443430510815233 1.5626549394801283 11.918311822460963 4.7482034519780418 12.434901059605172 1.1763108430895957 2.2998763835057607 4.4249611569102845 1.2821569768711918 0.99927120003849168 8.5888644214719587 1.6506130429916082 3.1160921680275351 5.8494398258626461 1.76942112762481 1.1686312495730806 0.7877209405414759 2.7372406185604623 1.7555893526878206 4.2069716681726268 1.959801727440208 6.6799879490863514 14.948698045685886 2.7082388480193904 5.4505773303098959 6.7839202694594896 24.211858917493373 4.6237791583407626 1.2968858089298008 3.0690395482815793 2.1969470693729738 1.8034670595079649 3.3264556447975471 2.810178552987054 37.543443956412375
leaf_count=115 31 59 110 236 87 14 613 226 728 21 82 108 45 12 98 50 53 104 24 58 14 109 77 179 31 148 118 53 295 66 178 177 13 94 111 50 153 76 2023
internal_value=0 -0.00339332 -0.00885852 0.00895348 -0.0131778 -0.000216911 -0.0111363 0.00703075 -0.0157523 0.0177314 0.0172957 -0.00113942 0.0207584 -0.0182908 0.0128911 -0.00105865 -0.0101395 0.0073875 -0.0159339 0.00683052 -0.0132955 -0.00561352 0.00553321 0.00597888 -0.00275249 0.00748256 0.0197617 0.0118568 -0.0208916 0.0179704 0.0235877 0.0171477 0.00536542 -0.0190131 -0.0200609 0.0238602 -0.0176894 -0.00313126 -0.019473
internal_weight=0 178.161 123.496 54.6645 82.3402 41.156 16.419 24.737 73.2168 34.0953 29.819 10.8365 30.1817 62.3802 19.201 24.8455 11.9729 12.8726 14.8564 2.93805 5.53592 3.91355 4.87168 8.63193 3.24196 9.12342 27.5191 12.5704 7.10119 9.8622 26.9398 16.313 5.92066 61.381 58.3119 10.3923 45.877 5.00713 40.8699
internal_count=6839 6424 5231 1193 3829 1402 709 693 3594 415 378 397 285 3197 453 815 475 340 695 82 240 130 130 287 76 235 296 178 345 125 209 338 190 3185 3091 148 2363 187 2176
is_linear=0
shrinkage=0.02


Tree=5
num_leaves=40
num_cat=0
split_feature=242 400 241 365 293 293 289 237 234 255 329 367 207 255 202 192 256 200 265 224 340 205 152 347 79 123 383 102 331 369 240 339 244 270 254 336 399 248 255
split_gain=29.8737 27.2701 13.4848 12.1636 10.1458 7.68632 7.54205 7.03983 5.91825 5.77107 8.02532 5.12859 5.04792 4.99575 7.01726 4.64069 4.53169 4.46802 4.36849 3.97982 3.91743 3.89562 3.39456 3.24553 3.37506 3.13972 2.88741 3.56394 2.74401 2.64368 2.62535 2.61006 2.64606 2.60727 2.60594 4.51968 2.49989 3.54067 2.49511
threshold=1.6302984989500255 0.039510853404698197 -0.52894621578324119 0.68884427897020484 -0.15298610162587389 -0.64386809108705467 -0.15821475406794472 0.71067612919501555 -0.27127357237632527 -0.24667251418227285 -0.41617219241092046 1.3359194163125261 0.85602486712755554 -0.44448953402491848 -1.578210102695315 0.01872306073669025 0.45438121310662349 15.287915357578749 -0.51149373726013081 -2.2422902642071061 -0.89221186131396613 1.1129857260334839 -0.02397373413978502 -0.25751247646115472 -0.065499271923407543 -0.044811975889026266 0.17716416653973879 0.048801385649870542 0.95155530603948224 0.089156168616318823 -0.40090841253093562 0.20330315049724951 -0.68157434124477823 0.084987984754890653 -0.30731149099731386 -0.16983244571389647 0.11480848108893754 -1.2040264616652061 -0.13567792194355838
decision_type=2 2 2 2 2 2 2 2 2 2 2 2 2 2 2 2 2 2 2 2 2 2 2 2 2 2 2 2 2 2 2 2 2 2 2 2 2 2 2
left_child=1 2 6 5 12 8 7 9 25 36 -11 28 15 17 -15 -3 23 21 30 -16 -20 -2 -5 29 -25 -4 27 -24 -7 -6 -8 34 -33 -17 35 -14 37 -1 -18
right_child=13 4 3 22 16 11 18 -9 -10 10 -12 -13 31 14 19 33 38 -19 20 -21 -22 -23 26 24 -26 -27 -28 -29 -30 -31 -32 32 -34 -35 -36 -37 -38 -39 -40
leaf_value=0.036168746219042626 -0.01297227825630399 0.017003492873141509 -0.024991735361792881 -0.014155916789019337 0.017765092269428559 -0.021206542354067829 0.022514146460298857 -0.022653249101250102 -0.016920454055337788 0.023705595011620843 -0.016464291742701344 0.023619771174565415 0.032892478146123734 0.024020671134947956 0.021778041939665354 -0.023880273858123968 0.023584305547769774 0.025388952742012229 0.017600777376646233 -0.021287714962240582 -0.018789388354607847 0.032003047862059396 -0.019685888362711356 -0.025828419467689746 -0.0042212263262483077 0.018607582243664295 0.025046795536314788 0.021707957259674417 -0.0014168804459503239 -0.011450983892526547 -0.0062533725567818967 0.030073717455277128 -0.0046911061865764813 0.0096125922363934826 0.029019748835289273 -0.018736052823778538 0.029965199788335953 0.00044800770114403535 -0.0080791064670335585
leaf_weight=1.5953666679561136 2.4453098387457461 4.9105116575956362 0.76118725957348932 2.2442445610649884 3.5610323845176088 54.046378234983422 2.3087149993516505 2.5824977552983901 4.9766409272560832 3.3268543819431242 4.9485128717496965 1.089763251133262 1.3823967338539662 4.0266769812442362 1.1079393979161976 2.6030070912092924 3.9012396736070514 21.111114542465657 1.3167701042257256 3.8100602249614877 11.673647622345012 1.1246516280807553 1.7456870358437284 4.1016016507055637 9.8023039941908738 5.0036724754609168 4.1406357479281723 1.5895833820104597 2.9559335883241138 1.8998017348349092 2.817569941282275 1.3327256552875044 2.5540307885967186 1.4462369885295627 13.651535320095716 1.3315431210212469 6.3666170099750161 3.6479811901226675 1.336526559665798
leaf_count=13 56 65 42 87 77 3091 54 149 247 58 250 12 10 40 14 78 54 156 30 138 589 11 64 196 377 108 54 30 94 53 117 14 47 34 96 34 55 87 58
internal_value=0 -0.00335355 -0.00869099 -0.0135274 0.00846287 -0.0164848 0.000670155 0.00841216 -0.000942528 0.0124466 -0.000315236 -0.0193587 0.0164324 0.0172488 0.0044434 0.00393285 -0.00099982 0.0218897 -0.00893127 -0.0115858 -0.0151007 0.00119638 0.00741568 -0.00546396 -0.0105953 0.0128508 0.0138914 4.23378e-05 -0.0201803 0.00760094 0.0067026 0.0219623 0.00722937 -0.0119179 0.0254613 0.00756192 0.021543 0.0113166 0.0155047
internal_weight=0 172.953 119.138 78.5537 53.8145 68.8336 40.5845 22.4678 10.7415 19.8853 8.27537 58.0921 29.212 33.6258 8.94468 8.95976 24.6025 24.6811 18.1167 4.918 12.9904 3.56996 9.72015 19.3647 13.9039 5.76486 7.47591 3.33527 57.0023 5.46083 5.12628 20.2522 3.88676 4.04924 16.3655 2.71394 11.61 5.24335 5.23777
internal_count=6839 6424 5231 3829 1193 3594 1402 612 397 463 308 3197 378 415 192 177 815 223 790 152 619 67 235 703 573 150 148 94 3185 130 171 201 61 112 140 44 155 100 112
is_linear=0
shrinkage=0.02


Tree=6
num_leaves=40
num_cat=0
split_feature=242 400 241 365 293 293 240 377 262 234 255 288 190 255 225 256 13 367 395 152 234 224 331 398 207 245 11 361 282 394 367 372 100 15 212 387 347 321 261
split_gain=25.4257 26.5647 13.5537 12.094 9.92698 9.61009 7.09857 7.49314 6.32253 5.62449 5.41473 5.04497 4.59284 4.33381 5.42083 4.89025 4.23893 4.22605 4.13282 3.72699 3.63637 3.40225 3.34211 3.29674 3.17209 5.20525 3.11519 2.98518 2.91351 2.58185 2.51232 2.50071 2.71796 2.40622 2.38897 2.38191 2.36435 3.04372 2.24289
threshold=1.6302984989500255 0.039510853404698197 -0.52894621578324119 0.68884427897020484 -0.15298610162587389 -0.64386809108705467 -0.12075325167342506 -0.65672821435018558 0.24635943557758511 -0.27127357237632527 -0.42180087441280084 0.25936969811591692 0.069421314906580142 -0.13567792194355838 0.72269565274847813 0.18668389097569824 0.17002193469030072 1.3359194163125261 0.49217701189304114 -0.02397373413978502 -0.79020025484589407 -0.15947500998608163 0.95155530603948224 0.15865966425322106 1.4618766800230814 0.49492375151892126 -0.0028796284620744212 -0.7170573808551558 0.11868684147843216 0.076456377807641557 0.01419614781266549 -0.35474378496499498 0.0090692926707035149 0.034253984035527325 -0.41757271878553909 0.28124117085144451 -0.10287194343911489 -0.36528604616800237 -1.0116127850111793
decision_type=2 2 2 2 2 2 2 2 2 2 2 2 2 2 2 2 2 2 2 2 2 2 2 2 2 2 2 2 2 2 2 2 2 2 2 2 2 2 2
left_child=1 2 6 5 12 9 8 -8 18 31 16 28 24 15 -15 -6 35 22 20 -5 34 -16 -7 -18 25 26 -3 33 -12 -10 -28 -4 -33 -9 -1 36 37 -2 -29
right_child=10 4 3 19 13 17 7 27 29 -11 11 -13 -14 14 21 -17 23 -19 -20 -21 -22 -23 -24 -25 -26 -27 30 38 -30 -31 -32 32 -34 -35 -36 -37 -38 -39 -40
leaf_value=0.020374523003064245 0.020567440182892947 -0.0034960910386256428 -0.021525412877630955 -0.016408339199119177 -0.0053763589725981031 -0.021836164807657085 0.020776472772992573 -0.016851606595718504 -0.026503491195379713 -0.016051998597047749 -0.004559417938245193 -0.026937884726923201 -0.011100034759266129 -0.021365795452161353 0.019002145373925895 0.019183870298868328 -0.029365154101162427 0.020481359347137799 -0.016821980702893681 0.014006043913837838 0.022746343716173848 -0.016368424675878138 -0.00028800251992123159 0.015635643518623166 0.025029079310040673 -0.02375300843207891 0.0059847287544952952 0.021913653724413038 0.024371047711593548 0.0042975926397879078 0.030001052002304612 0.025033659792908617 -0.006674983542083031 0.02695224112713546 -0.029808037745370553 0.033571051545197642 0.026627142463021222 -0.0066379260114371036 -0.016966053024295085
leaf_weight=0.63656795024871826 4.64197193272412 2.463206250220539 0.76215677428990591 2.0464513911865652 6.3695289024617541 51.227997042355128 3.2333058652002391 0.81999922799878477 2.2549485610797992 4.7928264094516617 2.608357652090489 1.8862133594229815 2.2214200356975189 6.6892105786828306 3.0883794203400612 6.6061737460549921 1.1103034741245204 1.019185117445885 1.4174279868602742 7.5845610250253213 12.174889410613105 1.6792397735407574 3.0505729662254444 1.5747799300588665 14.758783657802267 1.4942084276117373 2.5742501462809777 0.61826986167580145 2.9868764572311193 2.104539982508868 5.3910312447696924 4.2866764033678919 1.4460747377015648 1.2919074613600967 0.93949428293854065 6.7227733768522731 8.226495813578369 2.5478202309459457 14.815442158142096
leaf_count=16 34 55 32 87 236 3091 58 36 131 247 69 81 82 345 53 104 40 12 52 148 188 77 94 24 119 29 47 14 40 80 46 66 52 26 45 28 61 38 756
internal_value=0 -0.00309321 -0.00844428 -0.0134047 0.00859741 -0.0164346 0.000935405 -0.00720118 0.00959326 0.000382583 0.0162637 0.00134869 0.0165305 -0.000787224 -0.00975147 0.00712771 0.0207588 -0.0198675 0.0156942 0.00754343 0.0190459 0.00654401 -0.0206251 -0.00297255 0.018831 0.0111585 0.0161607 -0.0123569 0.0108844 -0.0116343 0.0222394 0.0125103 0.0170352 0.00994433 -0.00953942 0.0236369 0.0193049 0.0109268 -0.0154085
internal_weight=0 169.859 116.523 76.2165 53.3354 66.5855 40.3068 20.7789 19.5279 11.2877 32.3056 7.48145 28.9029 24.4325 11.4568 12.9757 24.8241 55.2978 15.1684 9.63101 13.751 4.76762 54.2786 2.68508 26.6815 11.9227 10.4285 17.5456 5.59523 4.35949 7.96528 6.49491 5.73275 2.11191 1.57606 22.1391 15.4163 7.18979 15.4337
internal_count=6839 6424 5231 3829 1193 3594 1402 890 512 397 415 190 378 815 475 340 225 3197 301 235 249 130 3185 64 296 177 148 832 109 211 93 150 118 62 61 161 133 72 770
is_linear=0
shrinkage=0.02


Tree=7
num_leaves=40
num_cat=0
split_feature=242 400 241 365 293 293 240 377 262 234 255 282 142 256 225 395 255 260 376 367 361 331 360 152 224 239 283 230 400 63 319 271 229 211 15 28 277 158 261
split_gain=27.4852 24.4003 12.6779 11.1326 10.654 9.21337 7.20501 6.73951 6.42438 6.01579 4.80671 4.96719 4.32172 4.31023 3.73132 3.68836 3.64614 3.60907 3.74789 3.55445 3.50748 3.42772 3.22227 3.02029 2.7113 2.67415 2.62706 4.37802 2.51159 2.50723 2.50478 2.49426 3.32039 2.36042 2.30579 2.29742 2.26312 3.17161 2.25128
threshold=1.6302984989500255 0.039510853404698197 -0.52894621578324119 0.68884427897020484 -0.64386809108705467 -0.15298610162587389 -0.12075325167342506 -0.65672821435018558 0.24635943557758511 -0.27127357237632527 -0.42180087441280084 0.095892820738527604 0.050842301069115602 0.25400795864601627 0.70876066443047536 0.49217701189304114 -0.13567792194355838 -0.85615561762195169 0.035515963213039729 1.3359194163125261 -0.7170573808551558 0.95155530603948224 0.24788049168881959 -0.02397373413978502 0.040216693108288924 -0.70014396999934525 0.046000029284746044 0.32841816534720891 0.020699857172005717 -0.041537442985252422 -0.30514087826137154 -0.022128775920788456 0.61419320676721267 0.96878378714742874 0.034253984035527325 -0.029923023311452152 0.35945526749109707 0.043606232997180187 -1.0116127850111793
decision_type=2 2 2 2 2 2 2 2 2 2 2 2 2 2 2 2 2 2 2 2 2 2 2 2 2 2 2 2 2 2 2 2 2 2 2 2 2 2 2
left_child=1 2 6 4 9 12 8 -8 15 31 17 -12 25 14 33 30 -15 18 -2 21 34 -6 -14 -5 -16 -3 27 35 -25 -26 -1 32 -4 -7 -9 -27 -19 -38 -22
right_child=10 5 3 23 19 13 7 20 -10 -11 11 -13 22 16 24 -17 -18 36 -20 -21 38 -23 -24 28 29 26 -28 -29 -30 -31 -32 -33 -34 -35 -36 -37 37 -39 -40
leaf_value=-0.0035791440458641604 -0.022900174498895653 -0.0042882434048945517 -0.03037799006852648 -0.015679108563463759 -0.022123970104247576 -0.021053921412762109 0.018366001665574793 -0.016498086297350299 -0.013143944716764944 -0.01662963437852762 -0.017390701407820647 0.016553253296489708 -0.023640525165988295 0.018455496041682739 0.018327477558486176 -0.016402276923115144 -0.010578731921832814 0.027378062044614057 0.019146374657098796 0.017777514133686584 0.018988118453264341 -0.00047163365538569846 0.014585272864515487 -0.00042031995114554758 0.019998937675398967 0.0038455522561672895 0.026000384685851502 -0.017161551837440957 0.022501977970419293 -0.027596346145390253 0.021178728720945388 0.023028532223351425 0.014437134767824194 -0.00058449438391945067 0.025990183255359955 0.027983381541737653 -0.0062642889117423819 0.027722995214683341 -0.018288054187941074
leaf_weight=1.8797973671462394 1.4159032069146662 1.84560834523291 1.0186184882186355 1.9337146626785395 48.944075712817721 6.8789563698228466 3.2843789078760919 0.80340391490609109 4.0956162214279166 4.6096493168733996 2.9610325009562066 4.1291348855011165 1.7909946781583124 6.1731786124873906 3.0937497705453998 1.3690755246207107 2.4037963218288478 17.158042781054977 2.1141322273761034 0.97166398353874583 0.67992557119578378 3.1103765107691279 1.7381187360733745 3.4547687014564854 0.66641981899738301 2.503661176655446 14.195679279975591 1.6636886224150655 4.2817174557130784 1.3188722245395181 12.529782783472911 4.0313910837285221 1.8852045075036583 3.3511778104584664 1.403313646558672 4.2626564241945717 2.1254997793585053 2.2724756170064211 13.836327846627674
leaf_count=68 35 36 48 87 3091 341 58 36 211 247 117 73 65 89 67 52 105 122 20 12 14 94 35 80 14 45 116 40 68 64 181 63 39 135 26 41 33 15 756
internal_value=0 -0.00327902 -0.00844917 -0.0133349 -0.0163321 0.00809254 0.00064586 -0.00782664 0.00917509 0.00107871 0.0169177 0.0023774 0.0158765 -0.00103221 -0.00739135 0.0149684 0.0103183 0.0210273 0.00228143 -0.0201227 -0.0129709 -0.0208302 -0.00481399 0.00667784 0.00662177 0.0188604 0.0207487 0.0119051 0.0122659 -0.0116196 0.0179489 0.012849 -0.00128335 -0.0143486 0.0105214 0.0190519 0.0240972 0.0112973 -0.0165421
internal_weight=0 166.009 114.123 74.2412 64.571 51.8866 39.8816 20.0073 19.8743 11.5449 32.1762 7.09017 28.0004 23.8862 15.3092 15.7787 8.57697 25.0861 3.53004 53.0261 16.723 52.0545 3.52911 9.6702 5.07904 24.4713 22.6257 8.43001 7.73649 1.98529 14.4096 6.93521 2.90382 10.2301 2.20672 6.76632 21.556 4.39798 14.5163
internal_count=6839 6424 5231 3829 3594 1193 1402 890 512 397 415 190 378 815 621 301 194 225 55 3197 832 3185 100 235 145 278 242 126 148 78 249 150 87 476 62 86 170 48 770
is_linear=0
shrinkage=0.02


Tree=8
num_leaves=40
num_cat=0
split_feature=242 400 241 365 293 293 289 255 329 234 265 255 142 282 260 255 225 79 179 367 331 240 152 239 340 400 224 256 283 383 277 52 285 238 121 339 322 98 189
split_gain=27.2235 23.1203 12.4685 10.5718 10.8479 8.24722 7.09656 6.57268 7.1552 5.81204 5.60074 4.4717 4.42331 4.25102 4.13309 3.69119 5.94659 3.40157 3.35014 3.21572 3.32916 3.03224 2.97067 2.86897 2.66638 2.55223 2.5171 2.51309 2.51271 2.46885 2.37097 3.83021 3.05411 2.26217 2.26155 2.25515 2.21266 2.30883 2.17897
threshold=1.6302984989500255 0.039510853404698197 -0.52894621578324119 0.68884427897020484 -0.64386809108705467 -0.15298610162587389 -0.15821475406794472 -0.25173852687879089 -0.57957320651871036 -0.27127357237632527 -0.51149373726013081 -0.42180087441280084 0.050842301069115602 0.095892820738527604 -0.85615561762195169 -0.13567792194355838 0.72269565274847813 -0.053701254116827919 0.063857045655640834 1.3359194163125261 0.95155530603948224 -0.38362250379644319 -0.02397373413978502 -0.63294636788533942 -0.89221186131396613 0.020699857172005717 -0.15947500998608163 0.18668389097569824 -0.32523517234366722 0.26071430987737237 0.046998714402386295 -0.038272341846551171 -0.086819068274106834 -0.36677109440439754 0.044319739747826652 0.0832925101944295 -0.34453930778016478 -0.014175331081453383 0.054985596619574764
decision_type=2 2 2 2 2 2 2 2 2 2 2 2 2 2 2 2 2 2 2 2 2 2 2 2 2 2 2 2 2 2 2 2 2 2 2 2 2 2 2
left_child=1 2 6 4 9 12 7 -1 34 38 21 14 23 -13 18 17 -17 35 -2 20 -6 -8 -5 -3 -12 -24 -18 -19 -25 -10 -30 32 -32 -15 -9 -7 -16 -38 -4
right_child=11 5 3 22 19 15 10 8 29 -11 24 13 -14 33 36 16 26 27 -20 -21 -22 -23 25 28 -26 -27 -28 -29 30 -31 31 -33 -34 -35 -36 -37 37 -39 -40
leaf_value=0.017964814895897525 -0.017614167690741228 -0.0048992262844902738 0.0056463807585163759 -0.016849500308611095 -0.022238735970501883 -0.021010552609034297 0.020357386612155394 0.0014329715808404184 -0.024658435532085556 -0.016622062523492524 0.012275540978509103 -0.016768476484775356 -0.0073205851357587715 -0.0059510121850753382 0.030147924884986754 -0.022866262019481921 0.017400076629017075 0.0015387570138468932 0.026638831188520177 0.016084004323326292 -0.00087544519398157048 -0.0090555622125098826 -0.0017152571312289994 -0.0044271494536319402 -0.019598499851406052 0.021272233896219385 -0.013443272296762747 0.022997967593756906 0.027184486894746285 0.0024000903604643803 0.011936385736243766 0.02343356420850029 -0.032428518322684584 0.024970443702604005 0.034854808445318033 0.011479355906997531 -0.000834006123079107 0.022076639505135009 0.030444010209837617
leaf_weight=12.273562795249747 1.8663706863299077 1.9680823418311835 5.0730253059882671 1.8298969985917208 47.299223793204874 2.4073888428974892 3.2206966078374535 1.4635377456434073 4.4389703606720996 4.4517264089081419 1.1622497863136239 2.7222447711974374 3.0476525968406341 1.3905107313767073 11.044308078009641 5.9159468051511777 3.1838946116622537 3.982019353425132 1.080405296757817 0.95717052556574245 3.1096537467092267 2.4827663013711598 3.3775094118900579 1.5313686802983379 10.850689012790095 4.5139713482931256 1.5853714612312613 4.8316329699009657 13.278149669524277 1.9375169384293256 1.4672084078192713 4.8872207421809426 1.0757550001144407 2.9629678290802985 1.8131689708679912 1.3248291707132009 2.2043747883290115 8.7171530432533348 1.9669664066750554
leaf_count=212 42 41 130 87 3091 95 57 53 256 247 30 117 100 36 54 345 53 136 13 12 94 114 80 32 589 68 77 69 119 84 23 41 22 37 7 40 38 78 20
internal_value=0 -0.00331598 -0.00837271 -0.0132996 -0.0163014 0.00792419 0.000647563 0.00825381 -0.00409325 0.00126436 -0.00876633 0.0168668 0.015387 0.00283558 0.0208519 -0.000831448 -0.00946992 0.00652587 -0.00138926 -0.0202313 -0.0209209 0.00755368 0.00610984 0.0182458 -0.0165147 0.0114337 0.00714731 0.0133027 0.020294 -0.0164366 0.0221221 0.0130755 -0.00683139 0.0150941 0.019927 -0.00947758 0.0238356 0.0174524 0.0125748
internal_weight=0 162.709 112.222 72.5791 62.8578 50.4865 39.6432 21.9268 9.65319 11.4917 17.7164 31.9883 27.2554 7.07572 24.9126 23.2311 10.6852 12.5459 2.94678 51.366 50.4089 5.70346 9.72138 24.2078 12.0129 7.89148 4.76927 8.81365 22.2397 6.37649 20.7083 7.43018 2.54296 4.35348 3.27671 3.73222 21.9658 10.9215 7.03999
internal_count=6839 6424 5231 3829 3594 1193 1402 612 400 397 790 415 378 190 225 815 475 340 55 3197 3185 171 235 278 619 148 130 205 237 340 205 86 45 73 60 135 170 116 150
is_linear=0
shrinkage=0.02


Tree=9
num_leaves=40
num_cat=0
split_feature=242 400 241 365 293 293 289 271 265 234 239 255 282 258 142 13 225 255 285 161 331 367 256 240 152 398 397 235 340 202 224 400 375 261 368 189 302 341 315
split_gain=25.7724 21.7867 12.8119 10.536 9.53632 7.61523 6.58934 5.74332 5.26373 5.2364 4.17229 4.10763 4.59561 3.77257 3.74875 3.65547 3.5046 5.97688 3.42646 3.84014 3.39112 3.95062 3.15792 3.14109 2.97968 2.8919 2.80484 2.6509 2.38033 2.33812 2.29037 2.32476 2.20861 2.96468 2.60577 2.20506 3.54345 2.17037 2.93649
threshold=1.6302984989500255 0.039510853404698197 -0.52894621578324119 0.68884427897020484 -0.64386809108705467 -0.15298610162587389 -0.15821475406794472 0.6967513718601771 -0.51149373726013081 -0.27127357237632527 -0.99389514362731568 -0.44448953402491848 0.095892820738527604 -0.61504739734620173 0.050842301069115602 0.17002193469030072 0.67086829935521874 -0.13567792194355838 -0.32534338646779326 0.12041228345553899 0.95155530603948224 1.3359194163125261 0.19795072028310171 -0.40090841253093562 -0.02397373413978502 0.15865966425322106 -0.19468723772080823 1.0098497931324169 -1.1090407650449239 1.118166238323647 0.040216693108288924 0.046103238866396772 0.17203010928287868 -0.18543636829749569 0.034554636208441014 0.054985596619574764 0.18673329764500871 0.016942624314626242 0.26433368706446364
decision_type=2 2 2 2 2 2 2 2 2 2 2 2 2 2 2 2 2 2 2 2 2 2 2 2 2 2 2 2 2 2 2 2 2 2 2 2 2 2 2
left_child=1 2 6 4 9 10 7 13 23 35 -3 15 -13 -1 32 37 17 22 -15 26 21 -6 -7 -8 -5 -17 -20 -9 -10 -14 -18 -32 33 -12 -35 36 -4 38 -2
right_child=11 5 3 24 20 16 8 27 28 -11 14 12 29 18 -16 25 30 -19 19 -21 -22 -23 -24 -25 -26 -27 -28 -29 -30 -31 31 -33 -34 34 -36 -37 -38 -39 -40
leaf_value=0.022280962125273501 0.0074167106166033196 -0.018383264087709322 0.01300855906722603 -0.018017053341668931 -0.022477998112625772 -0.0087201844412428935 0.019757521542523242 -0.025716552957938843 0.021987071474132872 -0.01723157025718321 0.021476243487369359 -0.018438369489199059 0.024861194949596523 0.018931859231239263 -0.0051958350113982255 -0.026038697603500648 0.017321821548667286 -0.023172621717118681 0.005997994829519954 0.02370417814779411 -0.00071840494294630856 0.02063204084587475 0.014690330462393665 -0.0098905705415149991 0.011060204456178821 0.015632559423539957 -0.025159525544353439 0.014912078694175258 -0.018487794506417271 -0.0061796428733796021 -0.030098851005794187 0.0082738133494993857 0.027206466422744106 0.014759438712711744 -0.014263793401578486 0.028918349727070081 -0.02728056248201156 0.028747968244783772 0.029991963588654778
leaf_weight=8.4948767938185519 6.0161617873236626 1.4256124296225632 3.8404465522617102 1.7104355669580389 45.153380299569108 4.5243225110461918 3.3325407207012177 2.5955721654463555 0.61425486765801984 4.2707992679206637 8.7511044796556288 2.5475520996842524 3.1044257075991482 3.9389700896572348 2.7687564273364833 1.1242650570347898 5.3920290782116336 5.4758675106568289 1.8674720739945794 1.45650671236217 3.3137873015366486 0.86661092191934486 4.6982961376197636 2.5029122729320106 8.0171899641863984 1.6347908768802879 3.032150269951666 0.85364069696515787 10.800722450483587 1.4121871483512221 0.96537551004439626 1.8261864532250909 8.9238713346421701 2.8648264924995592 2.1781943123787642 1.9554122798144815 1.1301563661545513 12.085587432608007 3.7359710596501827
leaf_count=134 82 36 81 87 3091 189 54 147 11 247 88 118 37 80 90 40 103 341 53 22 96 10 76 117 148 24 159 17 608 37 45 61 73 47 44 20 49 59 18
internal_value=0 -0.00327103 -0.00824931 -0.0133724 -0.0164772 0.00770121 0.000865468 0.00806079 -0.00841071 0.000185954 0.0149132 0.016483 0.00304073 0.0124154 0.0167756 0.0203436 -0.000781005 -0.00662134 0.00427494 -0.00480813 -0.0202591 -0.0216662 0.00320588 0.00704102 0.00594747 -0.00134772 -0.013284 -0.0156614 -0.0163098 0.0151558 0.00970877 -0.00499619 0.0194534 0.0144377 0.00222365 0.0109261 0.0038481 0.0230842 0.0160651
internal_weight=0 159.542 109.748 70.2582 60.5306 49.7944 39.4896 22.2392 17.2504 11.1968 26.9124 31.6609 7.06416 18.79 25.4868 24.5968 22.8821 14.6985 10.2951 6.35613 49.3338 46.02 9.22262 5.83545 9.72763 2.75906 4.89962 3.44921 11.415 4.51661 8.18359 2.79156 22.718 13.7941 5.04302 6.92602 4.9706 21.8377 9.75213
internal_count=6839 6424 5231 3829 3594 1193 1402 612 790 397 378 415 192 448 342 223 815 606 314 234 3197 3101 265 171 235 64 212 164 619 74 209 106 252 179 91 150 130 159 100
is_linear=0
shrinkage=0.02


Tree=10
num_leaves=40
num_cat=0
split_feature=242 400 241 365 293 293 289 234 265 271 142 255 288 260 225 255 106 367 331 152 179 256 239 368 392 295 235 340 282 277 8 92 237 300 84 400 258 319 11
split_gain=24.5446 20.9191 12.9199 10.173 8.67741 7.42999 6.65302 6.12222 5.43873 5.14163 4.28182 3.99258 4.32135 3.70953 3.54635 5.8195 3.51531 3.23089 3.62002 3.11814 3.10174 2.96629 2.75244 2.72071 2.70688 2.678 2.55305 2.28096 2.26083 2.19096 3.51253 3.18258 2.306 2.16932 2.17816 2.15849 2.0946 2.57037 2.06779
threshold=1.6302984989500255 0.039510853404698197 -0.52894621578324119 0.68884427897020484 -0.64386809108705467 -0.15298610162587389 -0.15821475406794472 -0.27127357237632527 -0.51149373726013081 0.6967513718601771 0.050842301069115602 -0.42180087441280084 0.25936969811591692 -0.85615561762195169 0.67086829935521874 -0.13567792194355838 0.034548685586927932 1.3359194163125261 0.95155530603948224 -0.02397373413978502 0.063857045655640834 0.19795072028310171 -0.70014396999934525 -0.038283233334018306 -0.29569135602881386 0.67156155067008616 1.0098497931324169 -0.89221186131396613 0.014697569493974475 0.046998714402386295 0.14010318125858215 0.02456677744843459 -0.65258177297323405 -0.46461276027808562 -0.016376625849702446 0.020699857172005717 -0.61504739734620173 0.0054685807270936611 -0.19799799521124403
decision_type=2 2 2 2 2 2 2 2 2 2 2 2 2 2 2 2 2 2 2 2 2 2 2 2 2 2 2 2 2 2 2 2 2 2 2 2 2 2 2
left_child=1 2 6 4 7 10 9 33 23 16 22 13 28 20 15 21 25 18 -6 -5 -2 -7 -3 -8 -18 36 -11 -10 -13 32 31 -31 -24 34 -4 -21 -1 -38 -29
right_child=11 5 3 19 17 14 8 -9 27 26 -12 12 -14 -15 -16 -17 24 -19 -20 35 -22 -23 29 -25 -26 -27 -28 38 -30 30 -32 -33 -34 -35 -36 -37 37 -39 -40
leaf_value=0.02680655406290855 -0.018880843666531956 -0.0096386747158578243 0.013135754723877784 -0.020396252706213893 -0.022362932729792992 -0.0090636122026242789 0.019857650990626207 -0.020471960575986495 0.01008895586217802 -0.02553596532627574 -0.0084216916707966979 -0.012502073530743892 -0.025253153771458609 0.022823757465158162 0.0095715295081827256 -0.023647824227273927 0.016512832167669082 0.015454393798857947 -0.00041138559148919389 -0.0014536251924752764 0.024335895777054164 0.013747913423775984 0.0066197968996751788 -0.0073043419075772588 -0.018332658158770294 -0.014600939912633022 0.014411136252102963 0.01745491058443252 0.019007933149742817 0.015578778919929131 0.022586090033931552 -0.023038982357354968 0.027556646216675879 0.017748294477536907 -0.028791524454661602 0.019289709817427444 -0.0053047267322244226 0.019809475885866578 -0.022153398468114881
leaf_weight=6.8064149850979474 1.6749850437045162 1.4002389037050367 1.0356772094964979 1.5559680494479824 44.019506433513016 4.3826741108205152 3.1207234722096473 3.8994929632171971 1.1323330048471696 2.4022898613475259 2.8413167975377283 1.1824202188290645 1.6702147522009907 21.534793289843947 8.3337661512196046 5.2319501810707179 1.4433623142540457 1.0005066841840733 3.2251382214017204 3.4873075224459154 1.1009174855425952 4.7529802625067532 2.5543570388108554 2.7973121306858983 2.3332696896977714 1.0288253244943906 0.87234020512551058 0.55913736112415868 3.9652022402733564 1.6443837340921157 4.3762674685567617 1.7751007527112959 11.941631247289473 5.0428654602728784 0.95048879086971272 4.7256479421630502 2.4520169789902893 4.8631646551657468 9.2368047900963521
leaf_count=70 42 36 20 87 3091 189 60 247 30 147 100 56 81 170 209 341 30 12 94 80 13 76 44 111 107 49 17 14 53 24 36 40 98 91 39 68 99 93 575
internal_value=0 -0.00321247 -0.00813833 -0.0133446 -0.0164661 0.00759186 0.00105369 -0.000374216 -0.00842352 0.00824486 0.0147784 0.0162257 0.00270018 0.0200188 -0.000807733 -0.00682811 0.0122482 -0.0201112 -0.0208644 0.00556369 -0.00174117 0.00280447 0.0175607 0.00701883 -0.00501532 0.0165516 -0.0148943 -0.0167861 0.01177 0.0192692 0.0107191 -0.00446822 0.0238673 0.0107754 -0.00692874 0.0104819 0.0188212 0.0113913 -0.0198926
internal_weight=0 157.225 107.991 68.9426 59.1737 49.2347 39.048 10.9285 16.8463 22.2017 26.5333 31.1285 6.81784 24.3107 22.7014 14.3676 18.9271 48.2452 47.2446 9.76892 2.7759 9.13565 23.692 5.91804 3.77663 15.1504 3.27463 10.9283 5.14762 22.2917 7.79575 3.41948 14.496 7.02903 1.98617 8.21296 14.1216 7.31518 9.79594
internal_count=6839 6424 5231 3829 3594 1193 1402 397 790 612 378 415 190 225 815 606 448 3197 3185 235 55 265 278 171 137 311 164 619 109 242 100 64 142 150 59 148 262 192 589
is_linear=0
shrinkage=0.02


Tree=11
num_leaves=40
num_cat=0
split_feature=242 400 241 365 293 293 289 234 265 271 142 362 267 258 331 367 255 225 276 255 152 256 240 285 295 277 237 331 365 206 310 385 61 239 340 11 238 208 278
split_gain=22.8721 19.2959 12.7867 8.67176 8.68862 7.43118 6.47088 6.17325 5.62838 4.89023 4.33662 3.57359 4.07981 3.53592 3.35202 3.75458 3.15715 4.95427 3.01745 2.96144 2.88311 2.87033 2.81904 2.72675 2.72285 2.62732 2.42605 2.82099 2.60058 2.57446 2.36755 2.74422 2.31931 2.29397 2.25536 2.2565 2.12356 2.08556 1.98625
threshold=1.6302984989500255 0.039510853404698197 -0.52894621578324119 0.68884427897020484 -0.64386809108705467 -0.15298610162587389 -0.15821475406794472 -0.27127357237632527 -0.51149373726013081 0.6967513718601771 0.050842301069115602 -0.11215302623788105 0.18031879800793876 -0.61504739734620173 0.95155530603948224 1.3359194163125261 -0.13567792194355838 0.72269565274847813 0.43741303872522802 -0.35511468149992559 -0.02397373413978502 0.17858827878117842 -0.40090841253093562 -0.87318793794887462 -0.308729998534924 -0.97084597073117507 -0.65258177297323405 -0.32656184963952001 -0.061664822560244907 -0.96579554591869632 -0.11132742629970167 -0.23284047948178691 -0.050595125007977179 -0.380501860331598 -0.89221186131396613 -0.19799799521124403 -0.51244780641632637 -0.48449275627517085 -0.20162989490788058
decision_type=2 2 2 2 2 2 2 2 2 2 2 2 2 2 2 2 2 2 2 2 2 2 2 2 2 2 2 2 2 2 2 2 2 2 2 2 2 2 2
left_child=1 2 6 4 7 10 9 -4 22 13 26 24 18 -1 15 -6 21 -18 38 32 -5 -7 -8 -21 -2 -11 29 28 -28 -3 -19 -32 -15 36 -10 -36 -29 -22 -13
right_child=11 5 3 20 14 16 8 -9 34 25 -12 12 -14 19 -16 -17 17 30 -20 23 37 -23 -24 -25 -26 -27 27 33 -30 -31 31 -33 -34 -35 35 -37 -38 -39 -40
leaf_value=0.021096275326153897 -0.00083858419409325088 -0.027879947554314527 0.010980844341466367 -0.021785155565339977 -0.022201198442315599 -0.0048444136380846881 0.018842033522147084 -0.020926065164830643 0.0090160156696446284 0.029765652285305495 -0.0095465368029995987 -0.010470643573872822 -0.024918523002566851 -0.0085349235923935264 -0.00073086369331696439 0.01949739480160689 -0.023130377894178152 0.022293942466314467 0.022587195146287035 0.019664344210631929 0.018230056425374005 0.014559003227215483 -0.0085308652408050863 -0.014650942419575388 0.023993445156601081 -0.022559295964869341 -0.02781441508877585 0.02232868942949006 0.019228958125007786 0.012060000619082056 0.021765976023814519 -0.019739488538125762 0.022507187939993494 0.024881903940555318 0.016245749186942226 -0.023212909696030296 -0.017691804665011007 -0.0020263065843299437 0.01271467760166114
leaf_weight=9.0113722246605938 1.9794186111539627 0.87989148497581515 7.0876174122095108 1.4338044142350543 42.542366282199509 5.6493607346201333 3.4545611827634275 3.6874267593957466 1.1611454712692655 0.44824036862701211 2.6798242302611461 2.8088514539413163 1.3839808297343541 1.2843841887079177 3.3990904814563683 0.88163041695952316 5.1637594599742425 1.9190617939457295 5.2146791638806462 1.2061695097945655 4.4415042847394934 6.6266271504573524 2.666630845982584 3.9912917283363587 16.403353705536578 2.6717939532827577 0.90558137930929661 1.0849433410912754 0.9773003607988453 2.4239157130941811 0.94169128686189663 1.9705491820350289 3.8446559540461775 16.155099108815179 0.62153206672519523 8.6152963698841578 1.0375002827495432 3.7494047610089174 3.1193149560131106
leaf_count=134 49 23 150 87 3091 229 54 247 30 5 100 75 56 35 96 10 345 39 46 22 67 111 117 201 144 159 21 16 19 42 16 75 56 132 14 575 25 81 45
internal_value=0 -0.00313981 -0.00791033 -0.0131947 -0.0161311 0.00732445 0.00120352 6.1688e-05 -0.0082981 0.00819254 0.0145564 0.0157059 0.00746788 0.0119413 -0.0198574 -0.0213546 -0.00116509 -0.0095104 0.0114904 0.00395222 0.00437787 0.00562963 0.00691733 -0.00668743 0.0213196 -0.015042 0.0173091 0.0199125 -0.00339679 0.00142293 0.00504681 -0.00631844 0.0147338 0.0223137 -0.0172553 -0.0205578 0.00276573 0.00895767 0.00172914
internal_weight=0 154.615 106.2 67.2228 57.5981 48.4151 38.9771 10.775 16.5192 22.4579 26.1441 30.9096 12.5268 19.3379 46.8231 43.424 22.271 9.99506 11.1428 10.3265 9.62471 12.276 6.12119 5.19746 18.3828 3.12003 23.4642 20.1604 1.88288 3.30381 4.8313 2.91224 5.12904 18.2775 10.398 9.23683 2.12244 8.19091 5.92817
internal_count=6839 6424 5231 3829 3594 1193 1402 397 790 612 378 415 222 448 3197 3101 815 475 166 314 235 340 171 223 193 164 278 213 40 65 130 91 91 173 619 589 41 148 120
is_linear=0
shrinkage=0.02


Tree=12
num_leaves=40
num_cat=0
split_feature=242 400 241 365 293 293 289 234 265 258 319 142 255 255 13 225 255 331 367 282 377 240 152 325 256 374 346 200 399 398 260 199 208 340 11 300 341 315 65
split_gain=21.3459 18.8211 12.7083 8.20061 8.33675 7.36447 6.55824 5.53981 5.26423 4.57381 4.44167 4.26761 3.58235 3.22839 3.07834 2.95405 4.72346 2.87044 3.69699 2.85677 2.77855 2.7683 2.6743 2.65498 2.63652 2.5553 2.70162 2.83929 2.6577 2.45154 2.30168 2.21137 2.16601 2.1618 2.17373 2.13332 2.10928 2.42007 3.11514
threshold=1.6302984989500255 0.039510853404698197 -0.52894621578324119 0.68884427897020484 -0.64386809108705467 -0.15298610162587389 -0.15821475406794472 -0.27127357237632527 -0.51149373726013081 -0.61504739734620173 -0.25586102888525303 0.050842301069115602 -0.11005934087659551 -0.25173852687879089 0.17002193469030072 0.67086829935521874 -0.13567792194355838 0.95155530603948224 1.3359194163125261 0.095892820738527604 0.27431836160490969 -0.40090841253093562 -0.02397373413978502 -0.85842892006810112 0.19795072028310171 0.15588570434109852 0.034359113750818904 20.35840029685561 -0.025406619747553743 0.15865966425322106 0.29080990289618353 -0.0012081250227010886 -0.081590043719545077 -0.89221186131396613 -0.19799799521124403 -0.46461276027808562 0.016942624314626242 0.26433368706446364 -0.019591705851923411
decision_type=2 2 2 2 2 2 2 2 2 2 2 2 2 2 2 2 2 2 2 2 2 2 2 2 2 2 2 2 2 2 2 2 2 2 2 2 2 2 2
left_child=1 2 6 4 7 11 9 35 21 20 -11 25 14 -12 36 16 24 18 -6 -14 -1 -8 -5 -15 -7 26 27 -3 -28 -16 -30 -21 -24 -10 -35 -4 37 38 -2
right_child=12 5 3 22 17 15 8 -9 33 10 13 -13 19 23 29 -17 -18 -19 -20 31 -22 -23 32 -25 -26 -27 28 -29 30 -31 -32 -33 -34 34 -36 -37 -38 -39 -40
leaf_value=0.023689200825515379 -0.019968978485463758 -0.0094685482145834138 -0.0085685639385137957 -0.021418477885849985 -0.022015357297340176 -0.0096796633077586049 0.017800096265852355 -0.020702222449855839 0.0083732858174221138 -0.020635158695641916 0.01649389030352702 -0.0099228986694796274 -0.01927177607792066 0.021079233668836513 -0.021071339389477899 0.0083449400326480253 -0.022452587158195501 -0.0017448100517217264 0.019201817864709227 0.024907185199769137 -0.0029445957494906782 -0.0096955790534511335 0.017188510605993558 -0.016462520082676374 0.012091516675653082 0.024915664840564386 0.027278175057681819 0.02549521285586789 -0.0091684234553273958 0.015928926644472024 0.024011068308209999 -0.0081895069048286643 -0.0039759122505827081 0.015311228110028607 -0.023441590737903563 0.0163084387779216 0.026307559625029179 0.026944095297719427 0.014006032933736
leaf_weight=7.9258843823336083 1.3954905220307461 3.5880922647193136 1.8584753358736632 1.3959357773419458 41.567462162813172 4.187416112283243 3.496896892786026 3.5280930241569859 1.1540910699404783 3.0762991183437398 5.7650884189642957 2.5728177723940453 1.9096569600515056 1.0099735192488872 1.3236363437026732 8.1894011172698793 4.9586360416142297 3.2842179937288156 0.88908476755022903 1.977501451969147 1.9528356185182927 2.5203320481814471 4.7541467305272809 2.9674716470763087 4.747648969758302 9.9252929450012726 5.1952424570918101 1.2536339182406662 2.0123210959136455 1.561073536518961 1.4310343898832796 1.3648628210648892 3.2609552177600554 0.62263558618724424 8.2563446373678691 5.342933292966336 12.609111281111835 3.6042552832514048 4.7670949585735833
leaf_count=99 32 76 59 87 3091 189 54 247 30 168 92 100 104 21 44 209 341 96 10 21 67 117 70 165 76 91 37 13 40 26 21 33 78 14 575 91 74 21 60
internal_value=0 -0.00305179 -0.00781082 -0.0131563 -0.0160369 0.00730855 0.00127795 -0.000170458 -0.00850676 0.00819709 0.000315647 0.0145267 0.0152717 0.00693107 0.0183964 -0.00118283 -0.00679882 -0.0197588 -0.0211522 0.000242566 0.0184242 0.00628346 0.00412841 -0.00692972 0.00188846 0.0172143 0.0115439 -0.000415629 0.0182469 -0.00104848 0.00462074 0.0113921 0.00857774 -0.017377 -0.0207241 0.0098884 0.0209032 0.0139262 0.00631254
internal_weight=0 152.691 104.629 65.8813 56.4703 48.0615 38.7479 10.7295 16.0503 22.6976 12.8188 25.9784 30.5127 9.74253 25.2607 22.0831 13.8937 45.7408 42.4565 5.25202 9.87872 6.01723 9.41104 3.97745 8.93507 23.4056 13.4803 4.84173 8.6386 2.88471 3.44336 3.34236 8.0151 10.0331 8.87898 7.20141 22.376 9.76684 6.16259
internal_count=6839 6424 5231 3829 3594 1193 1402 397 790 612 446 378 415 278 257 815 606 3197 3101 158 166 171 235 186 265 278 187 89 98 70 61 54 148 619 589 150 187 113 92
is_linear=0
shrinkage=0.02


Tree=13
num_leaves=40
num_cat=0
split_feature=242 400 241 365 293 293 289 234 265 258 142 319 255 282 13 225 255 377 152 209 256 367 331 385 342 234 202 245 208 398 277 98 374 346 200 399 189 302 247
split_gain=20.6019 18.1701 12.5146 7.81414 7.64169 6.85781 6.51768 5.38404 4.85194 4.69566 4.24566 4.00462 3.49587 3.71692 3.10425 2.89879 4.34948 2.63834 2.57773 2.51534 2.50938 2.48003 2.85123 2.44523 2.41361 2.27768 2.24447 2.15327 2.13558 2.13051 2.10226 2.20348 2.08224 2.68938 2.78518 2.31753 2.07455 2.85322 1.97901
threshold=1.6302984989500255 0.039510853404698197 -0.52894621578324119 0.68884427897020484 -0.64386809108705467 -0.15298610162587389 -0.15821475406794472 -0.27127357237632527 -0.40923317787813512 -0.61504739734620173 0.050842301069115602 -0.12311760006397403 -0.42180087441280084 0.095892820738527604 0.17002193469030072 0.67086829935521874 -0.13567792194355838 0.19817524907050815 -0.02397373413978502 1.8300858052533613 0.2032472302710551 1.3359194163125261 0.95155530603948224 -0.53773140304681777 0.21455007034553211 1.4462204053796504 1.118166238323647 -0.41677657891829062 -0.081590043719545077 0.15865966425322106 0.35945526749109707 0.056892541293440888 0.15588570434109852 0.034359113750818904 20.35840029685561 0.02467471056944431 0.054985596619574764 0.18673329764500871 -0.13509267905510222
decision_type=2 2 2 2 2 2 2 2 2 2 2 2 2 2 2 2 2 2 2 2 2 2 2 2 2 2 2 2 2 2 2 2 2 2 2 2 2 2 2
left_child=1 2 6 4 7 10 9 36 24 17 32 -11 14 -14 30 16 20 -1 -5 23 -7 22 -6 -13 -8 -19 -15 -20 -29 -16 -2 -32 33 34 -3 -35 37 38 -4
right_child=12 5 3 18 21 15 8 -9 -10 11 -12 19 13 26 29 -17 -18 25 27 -21 -22 -23 -24 -25 -26 -27 -28 28 -30 -31 31 -33 -34 35 -36 -37 -38 -39 -40
leaf_value=0.023954673578418864 0.024364875110180984 -0.010454025609016345 -0.009765913475692313 -0.021723082067429528 -0.021633047993041603 -0.0097061655637571374 -0.007909687734451205 -0.021410961815082744 -0.018288484936939662 -0.018108065550747909 -0.010844433469486528 0.028924719714638173 -0.018801122749912538 0.022884006378579826 -0.02274125699758307 0.0083158025535073447 -0.021851166748380248 -0.01649276588005965 -0.011732515797786197 0.021379273842151127 0.011696158485383239 0.012735390635684293 -0.0018226546184520731 -0.006245967340957107 0.016090035189089667 0.022705317478055157 -0.0081625948053792915 0.022597973313820408 -0.0018432583299823778 0.01313236479065588 -0.0094603600569001193 0.020213270933789326 0.023771499493592061 0.025259736249582158 0.024548942784058815 0.0026729150066650514 0.026585716564998651 -0.026139435900274469 0.01985517848855568
leaf_weight=7.731694661080839 16.847892073914419 3.2873704964295092 1.3392973551526659 1.3379954467527566 40.870774411596358 4.1011253674514574 3.3171496002469203 3.390906988643108 8.9403761676512641 3.5287215727148569 2.4367546339053652 0.93915871740318735 2.24021539883688 2.9212101139128208 1.1126316143199795 8.3397823616396618 4.8530050342669737 1.4037555796094241 1.6866661068052051 3.1682342018466443 4.7056407327763736 0.93251474387943645 3.1285218179691574 5.0024493474047622 3.3882423527538776 1.0266040530987082 1.3674196684733031 3.9532739771530028 2.2403584572020905 1.6357600092887876 1.6499662399291981 2.5449044965207577 10.020618656184523 5.8828420005738717 1.2569722905755041 2.6291860584169626 1.9806741550564764 1.0957265959586946 2.7644711490720515
leaf_count=91 112 76 38 87 3091 191 134 247 584 196 100 11 117 36 40 209 341 57 41 45 74 12 94 194 72 18 37 52 55 24 29 20 91 47 13 51 20 49 43
internal_value=0 -0.00302677 -0.00773996 -0.0131087 -0.0159408 0.00720719 0.00129784 -0.00064109 -0.00864302 0.00811924 0.0142628 -1.93066e-05 0.0150421 0.00207827 0.0185996 -0.00097548 -0.00664814 0.0182412 0.00394348 0.00698742 0.00172955 -0.0195404 -0.0202245 -0.000686722 0.0042174 6.48294e-05 0.0129849 0.00830141 0.0137571 -0.00139036 0.0212105 0.00854176 0.0169139 0.0116508 -0.00077215 0.0182831 0.00916769 0.00253254 0.0101881
internal_weight=0 150.681 103.168 64.7212 55.5029 47.5133 38.4464 10.5711 15.6458 22.8006 25.5137 12.6386 30.32 6.52885 23.7912 21.9996 13.6598 10.1621 9.21829 9.10984 8.80677 44.9318 43.9993 5.94161 6.70539 2.43036 4.28863 7.8803 6.19363 2.74839 21.0428 4.19487 23.077 13.0564 4.54434 8.51203 7.18017 5.1995 4.10377
internal_count=6839 6424 5231 3829 3594 1193 1402 397 790 612 378 446 415 190 225 815 606 166 235 250 265 3197 3185 205 206 75 73 148 107 64 161 49 278 187 89 98 150 130 81
is_linear=0
shrinkage=0.02


Tree=14
num_leaves=40
num_cat=0
split_feature=242 400 241 365 293 293 289 234 258 265 319 142 255 10 346 387 331 367 256 323 211 285 152 358 240 368 347 321 299 377 234 347 272 79 208 162 242 358 189
split_gain=19.3961 16.5575 11.4404 7.34465 7.3564 6.67453 6.16629 5.0833 4.48426 4.39968 4.00449 3.92399 3.25602 3.43891 2.78304 2.64741 2.60045 2.96188 2.47748 3.09799 2.4907 2.44239 2.42531 2.41103 2.29264 2.18983 2.16864 3.00142 2.16391 2.15316 2.32995 2.07457 2.0301 2.66448 2.01814 1.86692 2.94714 2.30403 1.83574
threshold=1.6302984989500255 0.039510853404698197 -0.52894621578324119 0.68884427897020484 -0.64386809108705467 -0.15298610162587389 -0.15821475406794472 -0.27127357237632527 -0.61504739734620173 -0.40923317787813512 -0.12311760006397403 0.050842301069115602 0.12882707942580121 0.095404085346876333 -0.8335819168348132 0.28124117085144451 0.95155530603948224 1.3359194163125261 0.45438121310662349 0.086709912829112543 0.97978233018139382 0.37738800830809199 -0.02397373413978502 -0.32472159551645025 -0.1546502279810569 -0.088347081544450062 -0.10287194343911489 -0.51644567453011725 -0.055711530652492562 0.19817524907050815 1.4462204053796504 -0.073239942901229413 -0.33027549622143376 -0.023041320646852808 -0.48449275627517085 -0.013729177307463493 -0.55870385153992863 -0.22804727956519219 0.054985596619574764
decision_type=2 2 2 2 2 2 2 2 2 2 2 2 2 2 2 2 2 2 2 2 2 2 2 2 2 2 2 2 2 2 2 2 2 2 2 2 2 2 2
left_child=1 2 6 4 7 11 8 38 29 24 -10 32 13 15 -14 26 17 -6 19 20 -7 23 -5 -12 -8 -22 27 -2 -15 -1 -31 -21 33 -3 -24 -34 -37 -38 -4
right_child=12 5 3 22 16 18 9 -9 10 -11 21 -13 14 28 -16 -17 -18 -19 -20 31 25 -23 34 -25 -26 -27 -28 -29 -30 30 -32 -33 35 -35 -36 36 37 -39 -40
leaf_value=0.022841542555334039 0.018188969163385488 -0.014445292748914576 0.0029590730387772371 -0.021314333502961812 -0.021119285538701217 -0.019577487940109554 0.012831569662370009 -0.020822587194972732 -0.018954808949927623 -0.017991949053234087 -0.019350701161135332 -0.010410176043967602 0.029479569865464277 -0.028642421161288893 -0.014292781049411373 0.028834428181481693 -0.0016588877351956153 0.016320896820155716 0.01122649798457267 0.017301136666549137 0.015023028502096665 -0.015599480121304366 0.016553590477628555 0.015540822833566548 -0.01101514099225368 -0.015004418386911441 0.021111055441800319 -0.0080287966151940376 0.010312964736950708 -0.016151556711610685 0.023070742858372045 -0.0048963423122311486 0.023762578622758261 0.020092544633543735 -0.0041369288022689073 0.028135284254983274 0.018554967721288448 -0.0099427808978226825 0.02569052148377533
leaf_weight=7.7388267340138572 3.8735749921761542 1.8173801777884366 5.1178483492694795 1.3023464747238902 40.224744538776577 6.3162647909484857 4.1281860133167356 3.2867746422998589 3.3394811314065 8.677004282595588 0.89895257563330133 2.4167981983628115 0.75697710365057025 0.98428814671933684 2.4992977902293196 7.8807563278824082 3.2164658005349329 0.86332476511597533 4.9379766276106229 3.2055094435345381 2.0447496972046797 1.6290749751497058 4.6500807236880064 6.6694376771338275 2.646469442639499 1.8508267726283518 9.1878810338675994 3.1808728361502299 1.3563817897811521 1.3588468004018071 1.0931947035714982 3.5485195736400774 12.078984310850506 1.7575167641043723 3.1719656591303629 2.5799388699233594 1.9015244282782138 2.8144856821745465 1.9673425815999506
leaf_count=91 38 45 130 87 3091 321 77 247 196 584 44 100 9 28 121 37 96 10 112 83 59 68 67 138 129 87 80 67 35 57 18 153 101 23 81 24 25 60 20
internal_value=0 -0.00293807 -0.00747337 -0.0126553 -0.0154274 0.00684627 0.00118611 -0.000265428 0.00781339 -0.00856195 -0.000196121 0.0138298 0.0147547 0.0170768 -0.00411715 0.0193226 -0.0189769 -0.0203326 -0.00124126 -0.00487005 -0.0118205 0.00661492 0.00395585 0.0113965 0.00351603 0.000756693 0.0147075 0.0063673 -0.00606838 0.0176668 0.00133494 0.00563874 0.0163824 0.00253445 0.00816325 0.0189376 0.0109494 0.00154769 0.00927091
internal_weight=0 149.251 101.98 63.8009 54.6765 47.2705 38.1795 10.372 22.7278 15.4517 12.5369 25.3666 29.72 26.4638 3.25627 24.1231 44.3045 41.0881 21.9038 16.9659 10.2118 9.19747 9.12439 7.56839 6.77466 3.89558 16.2423 7.05445 2.34067 10.1909 2.45204 6.75403 22.9498 3.5749 7.82205 19.3749 7.29595 4.71601 7.08519
internal_count=6839 6424 5231 3829 3594 1193 1402 397 612 790 446 378 415 285 130 222 3197 3101 815 703 467 250 235 182 206 146 185 105 63 166 75 236 278 68 148 210 109 85 150
is_linear=0
shrinkage=0.02


Tree=15
num_leaves=40
num_cat=0
split_feature=242 400 241 365 293 293 289 234 265 258 319 142 255 282 260 179 368 225 255 331 367 152 209 255 256 309 89 250 245 208 202 322 399 261 190 388 224 400 190
split_gain=18.7761 16.1252 10.9019 6.63482 6.70061 6.10259 5.86247 5.20228 4.52018 4.10224 3.92842 3.83725 3.12633 3.7796 3.0516 2.70215 2.61768 2.51932 4.29739 2.50001 2.83224 2.46934 2.4244 2.39323 2.18032 2.14666 2.84066 2.07085 2.05089 2.13476 2.0352 1.96891 1.96739 2.57842 2.67244 2.11615 1.94865 2.03059 1.92635
threshold=1.6302984989500255 0.039510853404698197 -0.52894621578324119 0.68884427897020484 -0.64386809108705467 -0.15298610162587389 -0.15821475406794472 -0.27127357237632527 -0.51149373726013081 -0.61504739734620173 -0.12311760006397403 0.050842301069115602 -0.44448953402491848 0.095892820738527604 -0.85615561762195169 0.063857045655640834 -0.038283233334018306 0.70026469833225247 -0.13567792194355838 0.95155530603948224 1.3359194163125261 -0.02397373413978502 1.8300858052533613 -0.34306665920775931 0.2032472302710551 -0.12537742073879884 -0.089872484914584688 -0.38129368867159469 -0.41677657891829062 -0.081590043719545077 1.118166238323647 -0.34453930778016478 -0.16240117117848576 -0.18543636829749569 -0.01439837509118868 -0.028608162323249548 0.040216693108288924 0.048577400215749737 0.012083247114237602
decision_type=2 2 2 2 2 2 2 2 2 2 2 2 2 2 2 2 2 2 2 2 2 2 2 2 2 2 2 2 2 2 2 2 2 2 2 2 2 2 2
left_child=1 2 6 4 7 11 9 -4 16 25 -11 32 14 -14 15 -2 -8 18 24 20 -6 -5 23 -12 -7 26 -1 -25 38 -30 -15 -16 -3 -34 -35 -36 -19 -38 -23
right_child=12 5 3 21 19 17 8 -9 -10 10 22 -13 13 30 31 -17 -18 36 -20 -21 -22 28 -24 27 -26 -27 -28 -29 29 -31 -32 -33 33 34 35 -37 37 -39 -40
leaf_value=0.017710261945791374 -0.020429036484765566 0.025869642838252733 0.0087502296957365239 -0.02301813873580219 -0.020677113068569782 -0.008690206463939509 0.01745331045471326 -0.022101622831066484 -0.017234214261394275 -0.019265113424426546 0.012377391340078493 -0.010704680317712085 -0.019552917398778714 0.022096974832702124 0.026908652289165308 0.02147803193658036 -0.0091467330781684879 0.015282157228210056 -0.021418903377917773 -0.0019302002141462515 0.016378746054199884 0.0080254501698786198 0.02019331594475425 0.0057011192766975409 0.011487669745498627 0.021365548760086929 -0.031874818403111363 -0.026853838272133692 0.021354129272716404 -0.0034404694449351892 -0.0075870394968605512 0.014438422247937645 0.019650106657477125 0.011945767397079324 0.0082114075172989229 -0.02977578556710142 -0.02370714078176054 0.0091988825838767128 -0.035800361187322084
leaf_weight=1.1584355835802851 1.4493052670732205 5.988451521843678 7.1911578259896487 1.2201821440830825 39.654803320067003 3.9852716261520964 3.1860095085576177 3.1411579670384508 9.2805189227219653 3.2004255258943877 2.7896206420846275 2.3715263612102708 2.1161516951397052 3.0244700303301215 10.185932639054959 1.0697079459205268 2.7633479137439272 5.1405181540176255 4.8251921080518541 3.3507530938368282 0.84257275797426601 0.8563982695341108 3.2998500037938356 1.362436990020796 4.6313532707281411 8.2758670533075946 0.7688799612224092 1.8332581564318386 4.0449454076588145 2.1153600187972179 1.3302524825558064 10.072679473087186 9.1888627633452469 5.2154609523713651 1.0232713762670758 1.3745283065363656 1.3100589704699817 1.7550137701909987 0.75472626555711031
leaf_count=22 42 54 150 87 3091 192 60 247 619 196 52 100 118 37 52 13 111 99 344 96 10 20 45 54 75 102 42 99 52 55 37 116 97 77 18 32 52 53 21
internal_value=0 -0.00289555 -0.0073893 -0.0124778 -0.0151183 0.00680924 0.00108809 -0.000629133 -0.00851035 0.00753107 -0.000156662 0.0135073 0.0146419 0.00237403 0.018127 -0.00263305 0.00509817 -0.000976333 -0.00630716 -0.0185325 -0.0199061 0.00343272 0.00642967 -0.00115856 0.00215521 0.0169385 -0.00207113 -0.0129745 0.00758573 0.01284 0.0130293 0.0207084 0.0160267 0.0125186 0.00391127 -0.0135646 0.00775625 -0.00486566 -0.0125046
internal_weight=0 147.9 101.091 63.1721 54.1804 46.8095 37.9187 10.3323 15.2299 22.6888 12.4856 25.1621 29.2485 6.47087 22.7776 2.51901 5.94936 21.6474 13.4418 43.8481 40.4974 8.99161 9.28517 5.98532 8.61662 10.2032 1.92732 3.1957 7.77143 6.16031 4.35472 20.2586 22.7906 16.8021 7.61326 2.3978 8.20559 3.06507 1.61112
internal_count=6839 6424 5231 3829 3594 1193 1402 397 790 612 446 378 415 192 223 55 171 815 611 3197 3101 235 250 205 267 166 64 153 148 107 74 168 278 224 127 50 204 105 41
is_linear=0
shrinkage=0.02


Tree=16
num_leaves=40
num_cat=0
split_feature=242 400 241 365 293 289 293 234 265 271 142 255 258 387 344 240 289 235 225 255 49 152 53 330 262 256 400 400 277 295 230 152 213 189 302 247 28 191 283
split_gain=17.5763 15.1029 10.2659 6.42475 6.17963 5.97895 5.79037 4.71039 4.23231 3.88596 3.78791 2.95138 2.82003 2.62197 2.6064 2.54821 2.49436 2.47704 2.43881 3.92038 2.41625 2.36511 2.2394 2.23723 2.11557 2.07494 1.92436 1.94349 1.91408 2.46353 3.06198 2.45643 1.88703 1.80447 2.54844 2.04655 1.78989 1.78147 1.98128
threshold=1.6302984989500255 0.039510853404698197 -0.52894621578324119 0.68884427897020484 -0.64386809108705467 -0.15502970982875799 -0.15298610162587389 -0.27127357237632527 -0.51149373726013081 0.6967513718601771 0.050842301069115602 0.12882707942580121 -0.61504739734620173 0.28124117085144451 -0.8125838025655362 -0.40090841253093562 -0.86062897339693367 1.0098497931324169 0.70026469833225247 -0.13567792194355838 -0.041867976186217758 -0.02397373413978502 0.055163172157474141 1.3147542773929048 0.17944196469403009 0.2032472302710551 0.020699857172005717 0.026863679007000076 0.046998714402386295 -0.4638763339396697 0.32841816534720891 -1.0000000180025095e-35 0.18879603097884259 0.054985596619574764 0.18673329764500871 -0.13509267905510222 -0.21353710118456068 0.11950239900719704 0.25557472734634384
decision_type=2 2 2 2 2 2 2 2 2 2 2 2 2 2 2 2 2 2 2 2 2 2 2 2 2 2 2 2 2 2 2 2 2 2 2 2 2 2 2
left_child=1 2 5 4 7 9 10 33 15 12 28 13 -1 22 -13 -7 -14 -11 19 25 -18 -5 -2 37 -22 -8 -23 -28 -3 -30 31 -31 -20 34 35 -4 -27 -6 -39
right_child=11 6 3 21 23 8 18 -9 -10 17 -12 14 16 -15 -16 -17 20 -19 32 -21 24 26 -24 -25 -26 36 27 -29 29 30 -32 -33 -34 -35 -36 -37 -38 38 -40
leaf_value=0.01835831210778982 0.014429128953325973 0.020017266109057696 -0.011366840819272464 -0.022656436428070147 -0.019921697457440039 0.015530662074994076 -0.0089049089176179326 -0.021558702393058016 -0.017442092777083577 -0.025081205848912564 -0.011479011670126105 0.026923021896177911 -0.024340373893168694 0.025879330181961861 -0.014628262551673399 -0.011113431267237362 -0.026726715732950605 0.014996022485761373 0.011421023778928469 -0.020934467249844269 0.016034771309968939 -0.0039248174015675532 -0.010301522919762116 0.012599776684671228 -0.0081123008336432666 0.030793752357856686 0.026588681253683823 -0.00080794391545825216 0.027569353674380452 -0.0070794302015604891 -0.02592851794130115 0.021295031318815116 -0.015404272158946828 0.024447915521991225 -0.025100744054499607 0.018691770724835362 0.0030547327418318504 0.0053755375930874009 -0.030908574288702539
leaf_weight=9.8202276965603268 15.918750706594446 14.468490805476909 1.3323471276089542 1.1912420794833449 39.199202926829457 3.4280501715838909 3.9007943624164891 3.0790982064791006 8.966205509612335 2.1533349284436549 2.265185533091425 0.81248442549258504 1.1594700398854936 8.1574144621845317 2.3516416754573575 2.4705582673195741 0.77869879640638995 0.86454640235751856 7.1279428189154697 4.722990908194336 6.0018254725728131 3.3014106703922135 1.6130131031386543 0.92954981024376948 1.9141677725128827 1.3011264353990553 2.7488717681262642 1.6619201470166443 1.9431952647864816 2.1707086730748411 1.2703203689306972 2.7877698130905615 1.229934075148776 1.9458736423403022 1.1043038857169447 2.8316135369241242 3.2662824201397598 2.2859122324734922 0.81715389620512713
leaf_count=134 198 161 38 87 3036 54 192 247 615 150 100 10 61 50 120 117 33 17 163 344 136 80 37 31 85 13 34 34 18 43 29 27 41 20 49 43 62 85 45
internal_value=0 -0.00281111 -0.00718911 -0.0121598 -0.0147766 0.00107327 0.00661176 -0.000849525 -0.00878624 0.00753186 0.0131798 0.0142673 0.0107733 0.0165122 -0.00395872 0.00437112 0.00321444 -0.0136001 -0.000979307 -0.00633493 0.00688898 0.00357158 0.0121538 -0.0180925 0.0101958 0.0018077 0.00762282 0.016266 0.0156469 0.00790913 0.00177574 0.00887334 0.00747345 0.00798945 0.00191039 0.00907388 0.0109568 -0.0187669 -0.00417943
internal_weight=0 146.44 99.9856 62.4285 53.5251 37.5571 46.4547 10.2932 14.8648 22.6923 24.9057 28.8533 19.6744 25.6892 3.16413 5.89861 9.85416 3.01788 21.5491 13.1912 8.69469 8.90344 17.5318 43.2318 7.91599 8.4682 7.7122 4.41079 22.6405 8.17199 6.2288 4.95848 8.35788 7.21414 5.26826 4.16396 4.56741 42.3023 3.10307
internal_count=6839 6424 5231 3829 3594 1402 1193 397 786 616 378 415 449 285 130 171 315 167 815 611 254 235 235 3197 221 267 148 68 278 117 99 70 204 150 130 81 75 3166 130
is_linear=0
shrinkage=0.02


Tree=17
num_leaves=40
num_cat=0
split_feature=242 400 241 365 293 289 293 234 265 142 255 383 362 334 332 10 271 368 152 225 255 331 367 374 283 314 210 256 124 400 259 162 189 302 247 400 28 228 223
split_gain=16.2682 14.8594 9.88679 6.30304 5.95 5.73558 5.39903 4.46517 4.14444 3.69561 3.56792 4.51984 2.92603 3.53427 3.54289 2.38128 2.37127 2.31314 2.2331 2.18418 3.86262 2.04589 2.0512 1.97399 2.411 2.2993 2.2101 1.91007 1.8761 1.86629 1.75956 1.7445 1.71714 2.06516 1.97239 1.68544 1.6655 1.63893 1.85655
threshold=1.6302984989500255 0.039510853404698197 -0.52894621578324119 0.68884427897020484 -0.64386809108705467 -0.15502970982875799 -0.15298610162587389 -0.27127357237632527 -0.51149373726013081 0.050842301069115602 -0.25173852687879089 0.26071430987737237 -0.11215302623788105 0.51516319609664296 -0.17687252456989411 0.036287224022950162 -0.079389711760508172 -0.038283233334018306 -0.027693388334435302 0.70026469833225247 -0.13567792194355838 0.95155530603948224 1.3359194163125261 0.15588570434109852 0.0035058376039298496 -0.17528467104646425 0.10313417198510723 0.2032472302710551 -0.017933417443093132 0.020699857172005717 0.42081630161584677 -0.016909647303091659 0.054985596619574764 0.18673329764500871 -0.13509267905510222 0.026863679007000076 -0.21353710118456068 -0.79961371543347193 0.55880441409165382
decision_type=2 2 2 2 2 2 2 2 2 2 2 2 2 2 2 2 2 2 2 2 2 2 2 2 2 2 2 2 2 2 2 2 2 2 2 2 2 2 2
left_child=1 2 5 4 7 10 9 32 17 23 37 16 15 14 -14 30 31 -7 -5 20 27 22 -6 24 25 -3 -26 -8 -13 -20 -2 -12 33 34 -4 -31 -29 38 -1
right_child=12 6 3 18 21 8 19 -9 -10 -11 11 28 13 -15 -16 -17 -18 -19 29 -21 -22 -23 -24 -25 26 -27 -28 36 -30 35 -32 -33 -34 -35 -36 -37 -38 -39 -40
leaf_value=0.01630646595453283 0.025124165110350899 0.019375187398755277 -0.012485268997903998 -0.022925613603209962 -0.019802677580847635 0.016046784900780337 -0.0079556536233228847 -0.021212745859716314 -0.017457975389706518 -0.011880368544689384 -0.02334201879091927 -0.010464383200643799 -0.02482002317582396 0.019352156050740574 0.006275451293152632 -0.0016635075246808843 -0.028016121746263726 -0.0092424443863237532 -0.0040741746000555572 0.0072176031006854135 -0.020509906075915695 -0.0020943701622937981 0.013889397549390531 0.022092439861169134 0.021983440301510768 -0.012319483361103825 -0.0017687252100963464 0.030099811291976954 0.020507417553335051 0.025375805489377904 0.0078403777373492103 0.0078194565041338499 0.023774833284946954 -0.023575380936766303 0.017486318652835287 -0.00012599793822448728 0.0032960889466845849 0.016943845906183225 -0.032999086987076737
